{"learner":{"attributes":{"scikit_learn":"{\"_estimator_type\": \"classifier\"}"},"feature_names":["loan_grade","person_age","person_income","person_emp_length","loan_amnt","loan_int_rate","loan_percent_income","loan_to_income_ratio","total_due_with_loan_amnt","remaining_income_end_of_month","person_home_ownership_OTHER","person_home_ownership_OWN","person_home_ownership_RENT","loan_intent_EDUCATION","loan_intent_HOMEIMPROVEMENT","loan_intent_MEDICAL","loan_intent_PERSONAL","loan_intent_VENTURE","cb_person_default_on_file_Y"],"feature_types":["float","float","float","float","float","float","float","float","float","float","float","float","float","float","float","float","float","float","float"],"gradient_booster":{"model":{"gbtree_model_param":{"num_parallel_tree":"1","num_trees":"810"},"iteration_indptr":[0,1,2,3,4,5,6,7,8,9,10,11,12,13,14,15,16,17,18,19,20,21,22,23,24,25,26,27,28,29,30,31,32,33,34,35,36,37,38,39,40,41,42,43,44,45,46,47,48,49,50,51,52,53,54,55,56,57,58,59,60,61,62,63,64,65,66,67,68,69,70,71,72,73,74,75,76,77,78,79,80,81,82,83,84,85,86,87,88,89,90,91,92,93,94,95,96,97,98,99,100,101,102,103,104,105,106,107,108,109,110,111,112,113,114,115,116,117,118,119,120,121,122,123,124,125,126,127,128,129,130,131,132,133,134,135,136,137,138,139,140,141,142,143,144,145,146,147,148,149,150,151,152,153,154,155,156,157,158,159,160,161,162,163,164,165,166,167,168,169,170,171,172,173,174,175,176,177,178,179,180,181,182,183,184,185,186,187,188,189,190,191,192,193,194,195,196,197,198,199,200,201,202,203,204,205,206,207,208,209,210,211,212,213,214,215,216,217,218,219,220,221,222,223,224,225,226,227,228,229,230,231,232,233,234,235,236,237,238,239,240,241,242,243,244,245,246,247,248,249,250,251,252,253,254,255,256,257,258,259,260,261,262,263,264,265,266,267,268,269,270,271,272,273,274,275,276,277,278,279,280,281,282,283,284,285,286,287,288,289,290,291,292,293,294,295,296,297,298,299,300,301,302,303,304,305,306,307,308,309,310,311,312,313,314,315,316,317,318,319,320,321,322,323,324,325,326,327,328,329,330,331,332,333,334,335,336,337,338,339,340,341,342,343,344,345,346,347,348,349,350,351,352,353,354,355,356,357,358,359,360,361,362,363,364,365,366,367,368,369,370,371,372,373,374,375,376,377,378,379,380,381,382,383,384,385,386,387,388,389,390,391,392,393,394,395,396,397,398,399,400,401,402,403,404,405,406,407,408,409,410,411,412,413,414,415,416,417,418,419,420,421,422,423,424,425,426,427,428,429,430,431,432,433,434,435,436,437,438,439,440,441,442,443,444,445,446,447,448,449,450,451,452,453,454,455,456,457,458,459,460,461,462,463,464,465,466,467,468,469,470,471,472,473,474,475,476,477,478,479,480,481,482,483,484,485,486,487,488,489,490,491,492,493,494,495,496,497,498,499,500,501,502,503,504,505,506,507,508,509,510,511,512,513,514,515,516,517,518,519,520,521,522,523,524,525,526,527,528,529,530,531,532,533,534,535,536,537,538,539,540,541,542,543,544,545,546,547,548,549,550,551,552,553,554,555,556,557,558,559,560,561,562,563,564,565,566,567,568,569,570,571,572,573,574,575,576,577,578,579,580,581,582,583,584,585,586,587,588,589,590,591,592,593,594,595,596,597,598,599,600,601,602,603,604,605,606,607,608,609,610,611,612,613,614,615,616,617,618,619,620,621,622,623,624,625,626,627,628,629,630,631,632,633,634,635,636,637,638,639,640,641,642,643,644,645,646,647,648,649,650,651,652,653,654,655,656,657,658,659,660,661,662,663,664,665,666,667,668,669,670,671,672,673,674,675,676,677,678,679,680,681,682,683,684,685,686,687,688,689,690,691,692,693,694,695,696,697,698,699,700,701,702,703,704,705,706,707,708,709,710,711,712,713,714,715,716,717,718,719,720,721,722,723,724,725,726,727,728,729,730,731,732,733,734,735,736,737,738,739,740,741,742,743,744,745,746,747,748,749,750,751,752,753,754,755,756,757,758,759,760,761,762,763,764,765,766,767,768,769,770,771,772,773,774,775,776,777,778,779,780,781,782,783,784,785,786,787,788,789,790,791,792,793,794,795,796,797,798,799,800,801,802,803,804,805,806,807,808,809,810],"tree_info":[0,0,0,0,0,0,0,0,0,0,0,0,0,0,0,0,0,0,0,0,0,0,0,0,0,0,0,0,0,0,0,0,0,0,0,0,0,0,0,0,0,0,0,0,0,0,0,0,0,0,0,0,0,0,0,0,0,0,0,0,0,0,0,0,0,0,0,0,0,0,0,0,0,0,0,0,0,0,0,0,0,0,0,0,0,0,0,0,0,0,0,0,0,0,0,0,0,0,0,0,0,0,0,0,0,0,0,0,0,0,0,0,0,0,0,0,0,0,0,0,0,0,0,0,0,0,0,0,0,0,0,0,0,0,0,0,0,0,0,0,0,0,0,0,0,0,0,0,0,0,0,0,0,0,0,0,0,0,0,0,0,0,0,0,0,0,0,0,0,0,0,0,0,0,0,0,0,0,0,0,0,0,0,0,0,0,0,0,0,0,0,0,0,0,0,0,0,0,0,0,0,0,0,0,0,0,0,0,0,0,0,0,0,0,0,0,0,0,0,0,0,0,0,0,0,0,0,0,0,0,0,0,0,0,0,0,0,0,0,0,0,0,0,0,0,0,0,0,0,0,0,0,0,0,0,0,0,0,0,0,0,0,0,0,0,0,0,0,0,0,0,0,0,0,0,0,0,0,0,0,0,0,0,0,0,0,0,0,0,0,0,0,0,0,0,0,0,0,0,0,0,0,0,0,0,0,0,0,0,0,0,0,0,0,0,0,0,0,0,0,0,0,0,0,0,0,0,0,0,0,0,0,0,0,0,0,0,0,0,0,0,0,0,0,0,0,0,0,0,0,0,0,0,0,0,0,0,0,0,0,0,0,0,0,0,0,0,0,0,0,0,0,0,0,0,0,0,0,0,0,0,0,0,0,0,0,0,0,0,0,0,0,0,0,0,0,0,0,0,0,0,0,0,0,0,0,0,0,0,0,0,0,0,0,0,0,0,0,0,0,0,0,0,0,0,0,0,0,0,0,0,0,0,0,0,0,0,0,0,0,0,0,0,0,0,0,0,0,0,0,0,0,0,0,0,0,0,0,0,0,0,0,0,0,0,0,0,0,0,0,0,0,0,0,0,0,0,0,0,0,0,0,0,0,0,0,0,0,0,0,0,0,0,0,0,0,0,0,0,0,0,0,0,0,0,0,0,0,0,0,0,0,0,0,0,0,0,0,0,0,0,0,0,0,0,0,0,0,0,0,0,0,0,0,0,0,0,0,0,0,0,0,0,0,0,0,0,0,0,0,0,0,0,0,0,0,0,0,0,0,0,0,0,0,0,0,0,0,0,0,0,0,0,0,0,0,0,0,0,0,0,0,0,0,0,0,0,0,0,0,0,0,0,0,0,0,0,0,0,0,0,0,0,0,0,0,0,0,0,0,0,0,0,0,0,0,0,0,0,0,0,0,0,0,0,0,0,0,0,0,0,0,0,0,0,0,0,0,0,0,0,0,0,0,0,0,0,0,0,0,0,0,0,0,0,0,0,0,0,0,0,0,0,0,0,0,0,0,0,0,0,0,0,0,0,0,0,0,0,0,0,0,0,0,0,0,0,0,0,0,0,0,0,0,0,0,0,0,0,0,0,0,0,0,0,0,0,0,0,0,0,0,0,0,0,0,0,0,0,0,0,0,0,0,0,0,0,0,0,0,0,0,0,0,0,0,0,0,0,0,0,0,0,0,0,0,0,0,0,0,0,0,0,0,0,0,0,0,0,0,0,0,0,0,0,0,0,0,0,0,0,0,0,0,0,0,0,0,0,0,0,0,0,0,0,0,0,0,0,0,0,0,0,0,0,0,0,0,0,0,0,0,0,0,0,0,0,0,0,0],"trees":[{"base_weights":[-1.7154051E-1,-5.349672E-1,3.055932E0,-9.2955965E-1,2.3692129E0,3.280346E0,-7.583696E-1,-1.0772129E0,-6.930881E-1,1.0034887E-1,1.5227284E0,3.586247E0,2.7347827E0,-2.8519342E-2,-1.00457445E-2,-1.1037358E0,-5.788495E-1,-7.7936614E-1,-3.9227343E-1,1.6414249E0,-2.1826481E-2,1.062411E-1,2.7378433E0,2.3534257E0,9.672037E-2,-3.322593E-2,-1.0418956E0,-3.3492678E-1,-7.240977E-1,-6.429379E-1,-9.810697E-1,1.4148645E-1,-6.20603E-1,1.5331662E0,7.392504E-2,4.561558E-2,8.7757364E-2,1.8728769E0,7.924067E-2,-9.656196E-1,-3.1987667E-2,-1.3434845E-2,-3.2176115E-4,-2.4625102E-2,-1.2201898E-2,-7.6235974E-1,-3.0249467E-1,-9.988992E-1,-8.547443E-3,-8.8954695E-2,6.368793E-1,-6.961024E-1,-0E0,1.9117702E0,1.1382542E0,6.094375E-2,3.8525563E-2,-2.9144155E-2,-6.568752E-1,-7.8459466E-1,6.5298507E-4,5.950242E-1,-5.066894E-1,-9.4066083E-1,-3.2965455E-2,1.7780377E-1,-3.4397393E-1,5.672249E-3,2.7539102E-2,-7.8264785E-1,-4.9242118E-1,-7.6305396E-3,7.398624E-3,1.0971637E0,6.2107317E-2,3.126841E-3,1.2999821E0,-2.1440476E-2,-1.2502362E-2,-9.081615E-1,-6.612724E-1,5.2117623E-5,4.069113E-2,-1.8935554E-2,-2.6623765E-1,-3.1971414E-2,-8.792479E-1,1.1354725E-2,-1.491234E-3,-1.4831272E-2,-0E0,-8.958046E-1,-4.516258E-1,-4.1230856E-3,-6.4594805E-1,4.4640645E-2,7.7128317E-3,4.0195797E-2,1.2284459E-2,-1.8398823E-2,-2.8882407E-2,-2.3860686E-2,-1.4788392E-2,-1.0741565E-2,3.5008125E-3,-2.6403183E-2,-1.6785337E-2,-2.7989646E-2,-1.7496267E-2,-1.9270418E-2,-5.4065734E-3,-8.303116E-3,-2.3655836E-2],"categories":[],"categories_nodes":[],"categories_segments":[],"categories_sizes":[],"default_left":[0,0,0,0,0,0,0,0,0,0,0,0,0,0,0,0,0,0,0,0,0,0,0,0,0,0,0,0,0,0,0,0,0,0,0,0,0,0,0,0,0,0,0,0,0,0,0,0,0,0,0,0,0,0,0,0,0,0,0,0,0,0,0,0,0,0,0,0,0,0,0,0,0,0,0,0,0,0,0,0,0,0,0,0,0,0,0,0,0,0,0,0,0,0,0,0,0,0,0,0,0,0,0,0,0,0,0,0,0,0,0,0,0],"id":0,"left_children":[1,3,5,7,9,11,13,15,17,-1,19,21,23,-1,-1,25,27,29,31,33,-1,-1,35,37,-1,-1,39,41,43,45,47,49,51,53,-1,-1,-1,55,-1,57,-1,-1,-1,-1,-1,59,61,63,-1,65,67,69,71,73,75,-1,-1,-1,77,79,-1,81,83,85,-1,87,89,-1,-1,91,93,-1,-1,95,-1,-1,97,-1,-1,99,101,-1,-1,-1,103,-1,105,-1,-1,-1,-1,107,109,-1,111,-1,-1,-1,-1,-1,-1,-1,-1,-1,-1,-1,-1,-1,-1,-1,-1,-1,-1],"loss_changes":[9.852991E3,8.657308E3,7.360596E2,2.2872559E2,8.5228174E2,1.0451074E2,2.6443253E0,5.090381E1,6.474512E1,0E0,1.4565906E2,2.3546387E1,4.9197266E1,0E0,0E0,8.741211E0,5.98275E0,5.1681763E1,7.123285E1,3.7366943E1,0E0,0E0,1.2263367E1,2.2533691E1,0E0,0E0,6.402832E0,3.3050585E0,3.157196E0,4.7074432E1,7.737976E0,2.0539751E1,1.9434006E1,5.9710327E1,0E0,0E0,0E0,3.3439026E0,0E0,1.2588806E1,0E0,0E0,0E0,0E0,0E0,1.61521E1,5.867656E1,2.307129E0,0E0,8.449197E0,6.5754566E0,4.288788E0,3.3232436E0,3.8937134E1,3.647937E1,0E0,0E0,0E0,1.1600494E0,1.0167419E1,0E0,2.757344E1,8.398048E0,2.0142517E0,0E0,3.3085608E0,4.140359E0,0E0,0E0,7.0509644E0,5.358328E0,0E0,0E0,2.0393738E1,0E0,0E0,1.4767212E1,0E0,0E0,8.111176E0,8.725983E0,0E0,0E0,0E0,4.9406805E0,0E0,2.9058228E0,0E0,0E0,0E0,0E0,1.2839508E0,2.972042E0,0E0,3.485321E0,0E0,0E0,0E0,0E0,0E0,0E0,0E0,0E0,0E0,0E0,0E0,0E0,0E0,0E0,0E0,0E0,0E0,0E0],"parents":[2147483647,0,0,1,1,2,2,3,3,4,4,5,5,6,6,7,7,8,8,10,10,11,11,12,12,15,15,16,16,17,17,18,18,19,19,22,22,23,23,26,26,27,27,28,28,29,29,30,30,31,31,32,32,33,33,37,37,39,39,45,45,46,46,47,47,49,49,50,50,51,51,52,52,53,53,54,54,58,58,59,59,61,61,62,62,63,63,65,65,66,66,69,69,70,70,73,73,76,76,79,79,80,80,84,84,86,86,91,91,92,92,94,94],"right_children":[2,4,6,8,10,12,14,16,18,-1,20,22,24,-1,-1,26,28,30,32,34,-1,-1,36,38,-1,-1,40,42,44,46,48,50,52,54,-1,-1,-1,56,-1,58,-1,-1,-1,-1,-1,60,62,64,-1,66,68,70,72,74,76,-1,-1,-1,78,80,-1,82,84,86,-1,88,90,-1,-1,92,94,-1,-1,96,-1,-1,98,-1,-1,100,102,-1,-1,-1,104,-1,106,-1,-1,-1,-1,108,110,-1,112,-1,-1,-1,-1,-1,-1,-1,-1,-1,-1,-1,-1,-1,-1,-1,-1,-1,-1],"split_conditions":[1.6499939E0,3E0,1E0,1.4079258E-1,-4.2937258E-1,1.348108E0,3.7779474E-1,1.1221586E0,4.6049365E-1,1.0034887E-1,1E0,5.7503724E-1,9.5054996E-1,-2.8519342E-2,-1.00457445E-2,-9.1584206E-1,2.7765673E-1,-2.618122E-1,1.6665708E-1,1.1861241E0,-2.1826481E-2,1.062411E-1,-2.54211E-1,2.1540096E0,9.672037E-2,-3.322593E-2,-3.8484395E-1,-2.2787745E-1,-1.4229333E-1,-4.1487864E-1,1.352137E0,1.1041833E0,1.1645103E0,-8.9930385E-2,7.392504E-2,4.561558E-2,8.7757364E-2,3.239348E-1,7.924067E-2,-5.826732E-2,-3.1987667E-2,-1.3434845E-2,-3.2176115E-4,-2.4625102E-2,-1.2201898E-2,1.4903882E0,-7.8636146E-1,8.9997035E-1,-8.547443E-3,-3.3464622E-1,6.082135E-1,2.3918769E-1,1E0,-9.525762E-1,-2.4512805E-1,6.094375E-2,3.8525563E-2,-2.9144155E-2,7.366813E-2,-9.109059E-1,6.5298507E-4,-4.91403E-2,7.826734E-1,-4.9715647E-1,-3.2965455E-2,-4.2937258E-1,6.9516767E-3,5.672249E-3,2.7539102E-2,1.1861241E0,5.702268E-1,-7.6305396E-3,7.398624E-3,-9.916988E-1,6.2107317E-2,3.126841E-3,2.1364157E0,-2.1440476E-2,-1.2502362E-2,-1.2258136E0,6.3454705E-1,5.2117623E-5,4.069113E-2,-1.8935554E-2,1.8355244E-1,-3.1971414E-2,9.999254E-1,1.1354725E-2,-1.491234E-3,-1.4831272E-2,-0E0,1.4801077E0,6.5758896E-1,-4.1230856E-3,8.858591E-1,4.4640645E-2,7.7128317E-3,4.0195797E-2,1.2284459E-2,-1.8398823E-2,-2.8882407E-2,-2.3860686E-2,-1.4788392E-2,-1.0741565E-2,3.5008125E-3,-2.6403183E-2,-1.6785337E-2,-2.7989646E-2,-1.7496267E-2,-1.9270418E-2,-5.4065734E-3,-8.303116E-3,-2.3655836E-2],"split_indices":[6,0,11,5,3,8,5,7,7,0,11,3,5,0,0,5,8,8,8,7,0,0,5,7,0,0,8,5,5,7,5,6,5,8,0,0,0,3,0,7,0,0,0,0,0,5,8,8,0,8,5,1,18,7,7,0,0,0,1,7,0,7,5,7,0,3,8,0,0,7,1,0,0,8,0,0,8,0,0,8,5,0,0,0,7,0,5,0,0,0,0,8,5,0,6,0,0,0,0,0,0,0,0,0,0,0,0,0,0,0,0,0,0],"split_type":[0,0,0,0,0,0,0,0,0,0,0,0,0,0,0,0,0,0,0,0,0,0,0,0,0,0,0,0,0,0,0,0,0,0,0,0,0,0,0,0,0,0,0,0,0,0,0,0,0,0,0,0,0,0,0,0,0,0,0,0,0,0,0,0,0,0,0,0,0,0,0,0,0,0,0,0,0,0,0,0,0,0,0,0,0,0,0,0,0,0,0,0,0,0,0,0,0,0,0,0,0,0,0,0,0,0,0,0,0,0,0,0,0],"sum_hessian":[8.396416E3,7.5487056E3,8.477111E2,6.6474736E3,9.0123193E2,8.011585E2,4.6552612E1,4.0845386E3,2.5629348E3,3.8086496E2,5.2036694E2,5.0360968E2,2.975488E2,2.5722878E1,2.0829733E1,3.873576E3,2.1096283E2,1.9862858E3,5.76649E2,4.957112E2,2.4655754E1,4.3040164E2,7.320807E1,1.949407E2,1.02608086E2,1.9811846E3,1.8923912E3,8.4121124E1,1.26841705E2,1.1936656E3,7.926201E2,1.7181628E2,4.0483273E2,4.5118143E2,4.4529793E1,2.0124636E1,5.308343E1,9.759704E1,9.7343666E1,9.661E2,9.262913E2,5.661354E1,2.7507584E1,8.1710846E1,4.513086E1,8.794331E2,3.1423254E2,7.700098E2,2.2610277E1,1.1732913E2,5.4487152E1,3.6138992E2,4.3442783E1,2.2440222E2,2.267792E2,5.9487103E1,3.8109936E1,8.178048E2,1.4829517E2,8.5637616E2,2.3056917E1,5.6534477E1,2.576981E2,5.746419E2,1.9536794E2,5.590752E1,6.142161E1,2.6084442E1,2.840271E1,2.455815E2,1.1580843E2,2.0384945E1,2.305784E1,5.796363E1,1.6643858E2,3.2137646E1,1.9464156E2,9.737834E1,5.0916817E1,4.162969E2,4.4007925E2,3.498578E1,2.1548702E1,1.5176656E2,1.05931526E2,1.336874E2,4.409545E2,2.9824465E1,2.6083055E1,4.112452E1,2.0297096E1,1.7784082E2,6.774068E1,3.8723488E1,7.7084946E1,3.5083797E1,2.2879833E1,1.7149402E2,2.314754E1,1.2230365E2,2.9399326E2,1.9244028E2,2.4763899E2,8.4654686E1,2.1276834E1,3.7677585E2,6.417866E1,1.3084204E2,4.6998787E1,3.2756283E1,3.498439E1,2.9820766E1,4.7264183E1],"tree_param":{"num_deleted":"0","num_feature":"19","num_nodes":"113","size_leaf_vector":"1"}},{"base_weights":[-1.6840334E-1,-5.2810735E-1,2.8402765E0,-9.2299753E-1,2.2358766E0,-2.0839052E-1,1.1043926E-1,-2.6199007E-1,-1.0073019E0,3.2388716E0,1.461892E0,-5.8662736E-1,3.807697E-2,3.8693946E-2,-3.5860077E-1,-1.0723938E0,-7.5560224E-1,1.2125397E0,1.08709075E-1,1.7494656E0,1.2350934E-1,-7.6528245E-1,1.958419E-3,-4.7787017E-1,1.0501409E0,-1.155502E0,-9.6069175E-1,-5.575975E-1,-9.24721E-1,1.515149E0,7.5646853E-3,2.0947123E0,5.844817E-1,-1.3427085E-2,5.6917256E-1,-9.729521E-3,-8.5769314E-1,-6.203089E-1,-7.2042614E-2,1.8387232E-2,4.0786054E-2,-3.35842E-2,-2.790768E-2,-9.945182E-1,-5.482026E-1,-6.573186E-1,-8.311297E-2,-9.540946E-1,-6.3724085E-3,2.9497491E-2,5.044542E-2,6.574377E-2,1.637106E0,8.5988766E-1,-2.2921762E-4,3.280165E-2,3.933613E-3,-2.6913231E-2,-1.1966737E-2,-7.105208E-1,-2.474853E-1,-2.3784854E-1,1.5142538E-2,-8.947582E-1,-3.0757574E-2,-2.1812981E-2,-9.0001084E-2,-5.039454E-1,-3.0786758E-2,2.5019681E-2,-5.1673126E-1,-8.868017E-1,-3.2410264E-2,1.4693148E-2,1.8574673E0,6.52223E-3,3.470288E-2,-8.459035E-1,-5.8084923E-1,-2.4378251E-2,-2.0763343E-2,-5.226574E-1,-0E0,-9.686117E-1,1.8646399E-2,2.0999145E-3,-7.802514E-3,-6.803122E-1,-2.3310052E-1,-2.7412985E-2,-2.6775494E-3,-3.061145E-2,-7.700966E-1,6.067063E-2,3.8212933E-2,-1.0864318E-2,-2.5712885E-2,-2.234414E-2,-1.123272E-2,-1.1645381E-2,3.5507982E-3,-7.062947E-3,-2.0215724E-2,6.4666476E-3,-7.7312747E-3,-2.5890667E-2,-3.2502916E-2,-1.625952E-2,-2.7569504E-2,4.9401503E-2,-1.7132537E-2,-4.9714935E-3,-2.3782738E-2],"categories":[],"categories_nodes":[],"categories_segments":[],"categories_sizes":[],"default_left":[0,0,0,0,0,0,0,0,0,0,0,0,0,0,0,0,0,0,0,0,0,0,0,0,0,0,0,0,0,0,0,0,0,0,0,0,0,0,0,0,0,0,0,0,0,0,0,0,0,0,0,0,0,0,0,0,0,0,0,0,0,0,0,0,0,0,0,0,0,0,0,0,0,0,0,0,0,0,0,0,0,0,0,0,0,0,0,0,0,0,0,0,0,0,0,0,0,0,0,0,0,0,0,0,0,0,0,0,0,0,0,0,0],"id":1,"left_children":[1,3,5,7,9,11,-1,13,15,17,19,21,-1,-1,23,25,27,29,-1,31,33,35,-1,37,39,41,43,45,47,49,-1,51,53,-1,55,-1,57,59,61,-1,-1,-1,-1,63,65,67,69,71,-1,-1,-1,-1,73,75,-1,-1,-1,-1,-1,77,79,81,-1,83,-1,-1,85,87,-1,-1,89,91,-1,-1,93,-1,-1,95,97,-1,99,101,103,105,-1,-1,-1,107,109,-1,-1,-1,111,-1,-1,-1,-1,-1,-1,-1,-1,-1,-1,-1,-1,-1,-1,-1,-1,-1,-1,-1,-1],"loss_changes":[9.077944E3,8.1826904E3,2.7872422E3,3.63667E2,7.116958E2,1.3296906E2,0E0,1.1662947E2,9.159912E1,4.4427246E2,2.0321472E2,2.2300526E1,0E0,0E0,1.19415375E2,3.8146484E1,3.7748474E1,2.368161E1,0E0,1.7098999E2,2.6518513E1,3.9055786E0,0E0,3.7037766E1,4.308159E0,3.758545E0,2.4955078E1,2.5867737E1,1.1669373E1,1.1841431E0,0E0,1.845752E1,1.7827084E1,0E0,1.2791752E1,0E0,2.0105362E0,1.4887207E1,1.740439E1,0E0,0E0,0E0,0E0,1.0486084E1,1.4531109E1,2.7002686E1,4.3251408E1,3.083191E0,0E0,0E0,0E0,0E0,2.3501038E1,1.4095398E1,0E0,0E0,0E0,0E0,0E0,4.231842E0,1.2789995E1,9.31955E0,0E0,9.724963E1,0E0,0E0,1.859206E0,1.5283051E1,0E0,0E0,1.2360693E1,6.156006E0,0E0,0E0,2.679657E0,0E0,0E0,2.3768616E0,5.983803E0,0E0,4.6397567E0,1.8800507E0,4.9753933E0,4.1464233E0,0E0,0E0,0E0,3.7880936E0,1.0326013E2,0E0,0E0,0E0,9.393967E0,0E0,0E0,0E0,0E0,0E0,0E0,0E0,0E0,0E0,0E0,0E0,0E0,0E0,0E0,0E0,0E0,0E0,0E0,0E0,0E0],"parents":[2147483647,0,0,1,1,2,2,3,3,4,4,5,5,7,7,8,8,9,9,10,10,11,11,14,14,15,15,16,16,17,17,19,19,20,20,21,21,23,23,24,24,25,25,26,26,27,27,28,28,29,29,31,31,32,32,34,34,36,36,37,37,38,38,43,43,44,44,45,45,46,46,47,47,52,52,53,53,59,59,60,60,61,61,63,63,66,66,67,67,70,70,71,71,74,74,77,77,78,78,80,80,81,81,82,82,83,83,87,87,88,88,92,92],"right_children":[2,4,6,8,10,12,-1,14,16,18,20,22,-1,-1,24,26,28,30,-1,32,34,36,-1,38,40,42,44,46,48,50,-1,52,54,-1,56,-1,58,60,62,-1,-1,-1,-1,64,66,68,70,72,-1,-1,-1,-1,74,76,-1,-1,-1,-1,-1,78,80,82,-1,84,-1,-1,86,88,-1,-1,90,92,-1,-1,94,-1,-1,96,98,-1,100,102,104,106,-1,-1,-1,108,110,-1,-1,-1,112,-1,-1,-1,-1,-1,-1,-1,-1,-1,-1,-1,-1,-1,-1,-1,-1,-1,-1,-1,-1],"split_conditions":[1.6499939E0,3E0,1E0,-7.5539416E-1,-4.2937258E-1,3E0,1.1043926E-1,-1.1443738E0,2E0,1E0,1E0,2E0,3.807697E-2,3.8693946E-2,-7.813261E-1,1E0,-1.070948E-1,2.3838812E-1,1.08709075E-1,4.1154468E-1,1E0,-7.9169893E-1,1.958419E-3,2E0,-1.7827012E-1,7.2153914E-1,1.0229089E0,-2.6268664E-1,1.0229089E0,-3.4048256E-1,7.5646853E-3,-1.070948E-1,1.3191638E0,-1.3427085E-2,-4.4208768E-1,-9.729521E-3,1E0,-3.9566013E-1,-3.9566013E-1,1.8387232E-2,4.0786054E-2,-3.35842E-2,-2.790768E-2,-2.368584E-1,-2.6268664E-1,-3.6973384E-1,-2.368584E-1,8.287282E-1,-6.3724085E-3,2.9497491E-2,5.044542E-2,6.574377E-2,-5.5230852E-2,5.482234E-1,-2.2921762E-4,3.280165E-2,3.933613E-3,-2.6913231E-2,-1.1966737E-2,-9.10986E-1,1E0,-9.10986E-1,1.5142538E-2,-2.6268664E-1,-3.0757574E-2,-2.1812981E-2,1.5222494E-1,-5.220064E-1,-3.0786758E-2,2.5019681E-2,-2.108227E-1,4.8497044E-2,-3.2410264E-2,1.4693148E-2,1.0143583E-1,6.52223E-3,3.470288E-2,-8.426528E-1,1E0,-2.4378251E-2,-9.10986E-1,1.1115307E-1,-4.2937258E-1,-3.6973384E-1,1.8646399E-2,2.0999145E-3,-7.802514E-3,1E0,-4.9931592E-1,-2.7412985E-2,-2.6775494E-3,-3.061145E-2,1.5222494E-1,6.067063E-2,3.8212933E-2,-1.0864318E-2,-2.5712885E-2,-2.234414E-2,-1.123272E-2,-1.1645381E-2,3.5507982E-3,-7.062947E-3,-2.0215724E-2,6.4666476E-3,-7.7312747E-3,-2.5890667E-2,-3.2502916E-2,-1.625952E-2,-2.7569504E-2,4.9401503E-2,-1.7132537E-2,-4.9714935E-3,-2.3782738E-2],"split_indices":[6,0,12,2,3,0,0,2,0,12,13,0,0,0,2,12,2,9,0,2,12,2,0,0,3,7,7,2,7,2,0,2,2,0,9,0,13,4,4,0,0,0,0,2,2,2,2,9,0,0,0,0,2,4,0,0,0,0,0,2,12,2,0,2,0,0,2,2,0,0,2,2,0,0,9,0,0,7,0,0,2,7,3,2,0,0,0,13,2,0,0,0,2,0,0,0,0,0,0,0,0,0,0,0,0,0,0,0,0,0,0,0,0],"split_type":[0,0,0,0,0,0,0,0,0,0,0,0,0,0,0,0,0,0,0,0,0,0,0,0,0,0,0,0,0,0,0,0,0,0,0,0,0,0,0,0,0,0,0,0,0,0,0,0,0,0,0,0,0,0,0,0,0,0,0,0,0,0,0,0,0,0,0,0,0,0,0,0,0,0,0,0,0,0,0,0,0,0,0,0,0,0,0,0,0,0,0,0,0,0,0,0,0,0,0,0,0,0,0,0,0,0,0,0,0,0,0,0,0],"sum_hessian":[8.384392E3,7.4910923E3,8.9329913E2,6.556336E3,9.347565E2,2.2398889E2,6.6931024E2,7.4398456E2,5.812351E3,4.0326862E2,5.3148785E2,1.8148485E2,4.2504047E1,3.969799E1,7.0428656E2,4.608866E3,1.203485E3,8.929428E1,3.1397433E2,4.3630048E2,9.518739E1,1.4339868E2,3.8086174E1,6.513967E2,5.2889835E1,2.6249307E3,1.9839354E3,5.617255E2,6.417594E2,6.584867E1,2.3445612E1,3.3445367E2,1.0184681E2,3.989849E1,5.5288902E1,2.9420721E1,1.1397795E2,4.795127E2,1.71884E2,2.967734E1,2.3212494E1,2.3697935E3,2.5513734E2,1.8283258E3,1.5560959E2,4.6177255E2,9.9953E1,6.138749E2,2.7884539E1,2.776331E1,3.808536E1,2.2369727E2,1.1075641E2,6.986323E1,3.1983583E1,2.1025112E1,3.426379E1,9.181765E1,2.2160303E1,3.823078E2,9.72049E1,1.370897E2,3.47943E1,8.3321643E2,9.9510944E2,1.03586395E2,5.2023193E1,3.4344714E2,1.1832541E2,2.9721104E1,7.0231895E1,4.6001575E2,1.5385913E2,2.0173439E1,9.058297E1,2.7398897E1,4.2464333E1,1.7697903E2,2.0532878E2,2.3575697E1,7.36292E1,6.0592396E1,7.6497314E1,7.9667377E2,3.6542667E1,2.5515839E1,2.6507355E1,2.0369789E2,1.3974925E2,3.1808989E1,3.842291E1,1.6842299E2,2.9159274E2,5.4172405E1,3.6410564E1,2.1745731E1,1.5523329E2,9.351361E1,1.1181517E2,2.0655363E1,5.2973843E1,2.8521471E1,3.2070927E1,4.1366737E1,3.5130573E1,5.914859E2,2.0518787E2,1.534525E2,5.024538E1,2.015793E1,1.1959132E2,2.9315042E1,2.622777E2],"tree_param":{"num_deleted":"0","num_feature":"19","num_nodes":"113","size_leaf_vector":"1"}},{"base_weights":[-1.7355627E-1,-5.2857625E-1,2.606782E0,-8.913941E-1,1.7444674E0,-1.3592616E-1,3.482594E0,-2.1739301E-1,-9.7714E-1,2.6378164E0,1.0799507E0,-6.0371894E-1,3.8308907E-2,6.2958725E-2,1.01316996E-1,-5.028183E-1,4.824975E-1,-1.0617492E0,-6.279167E-1,8.0039656E-1,3.1710222E0,6.3203144E-1,2.8292701E0,-2.8118663E-2,-3.2813933E-1,-5.9504056E-1,2.0435812E-2,6.2147006E-2,2.7088305E-1,-1.1441737E0,-9.521233E-1,-7.429271E-1,-8.4988534E-2,2.1011222E-3,1.2182335E0,2.1878214E0,9.676696E-2,1.0935138E0,2.0529002E-1,4.012839E-2,8.9311115E-2,-1.2646373E-1,-2.8438078E-2,-7.429915E-1,-3.190562E-1,6.848331E-2,4.3620624E-2,-3.3731323E-2,-9.66411E-1,-9.7900224E-1,-4.2288327E-1,-5.34415E-1,-9.154286E-1,7.142322E-1,-5.8246756E-1,4.76937E-2,2.0349532E-2,9.4133355E-2,1.4176385E-2,5.5911595E-1,1.4060835E0,-1.4632531E-2,3.092641E-1,2.679536E-2,-1.2661753E-2,-3.0475143E-2,-6.3503885E-1,1.1261716E-2,-4.2375773E-1,-1.2420848E-1,2.147539E-2,-6.9973063E-1,-2.9601786E-2,-1.0388122E0,-8.3995116E-1,-6.076301E-1,-0E0,-6.2900704E-1,-6.477516E-2,-7.881039E-1,-1.0446721E0,4.139288E-2,-1.463463E-3,-7.50414E-1,1.2767502E-3,2.3543072E-1,2.519754E-2,7.9508007E-1,1.6763605E0,6.8018943E-1,-9.6591584E-2,8.532998E-3,-3.167613E-3,-7.189017E-1,-2.4554186E-1,-5.3503823E-1,-0E0,-2.993671E-1,1.01504065E-2,-5.492453E-1,-3.1690773E-2,-1.0453117E0,-1.5580575E-2,-6.804261E-1,-9.558619E-1,-4.143538E-1,-2.5509397E-2,-4.825701E-1,-2.8479122E-2,2.4107486E-2,-4.5395064E-1,-3.0946415E-2,-4.8879382E-1,-3.1917043E-2,-1.0863487E-2,-5.8823526E-1,-2.9142005E-2,-2.3877044E-4,1.5102837E-2,1.202185E-2,3.226708E-2,5.7271656E-2,1.2032703E0,3.3776817E-1,9.971422E-1,3.0181112E-2,-1.0497933E-2,-1.0459773E-2,-2.2431327E-2,-1.4370808E-2,1.5344964E-3,-5.918925E-3,-1.761296E-2,-2.0731531E-2,2.7304254E-3,-1.9685643E-2,-3.7441456E-3,-2.7137907E-2,-3.1214211E-2,-2.3117691E-2,7.7699595E-3,-2.8414967E-2,-1.48681225E-2,-1.7803103E-2,-2.08766E-3,-1.8466888E-2,-6.611807E-3,-2.7487395E-2,-0E0,-0E0,-1.73234E-2,-5.566284E-3,-2.0683875E-2,1.7144056E-2,4.7959477E-2,1.3708972E-3,1.439948E-2,1.4005703E-2,3.682643E-2,-7.904087E-3,6.39238E-3],"categories":[],"categories_nodes":[],"categories_segments":[],"categories_sizes":[],"default_left":[0,0,0,0,0,0,0,0,0,0,0,0,0,0,0,0,0,0,0,0,0,0,0,0,0,0,0,0,0,0,0,0,0,0,0,0,0,0,0,0,0,0,0,0,0,0,0,0,0,0,0,0,0,0,0,0,0,0,0,0,0,0,0,0,0,0,0,0,0,0,0,0,0,0,0,0,0,0,0,0,0,0,0,0,0,0,0,0,0,0,0,0,0,0,0,0,0,0,0,0,0,0,0,0,0,0,0,0,0,0,0,0,0,0,0,0,0,0,0,0,0,0,0,0,0,0,0,0,0,0,0,0,0,0,0,0,0,0,0,0,0,0,0,0,0,0,0,0,0,0,0,0,0,0,0,0,0,0,0,0,0],"id":2,"left_children":[1,3,5,7,9,11,13,15,17,19,21,23,-1,-1,-1,25,27,29,31,33,35,37,39,-1,41,43,-1,-1,45,47,49,51,53,-1,55,57,-1,59,61,-1,-1,63,-1,65,67,69,-1,-1,71,73,75,77,79,81,83,-1,-1,-1,-1,85,87,-1,89,91,-1,-1,93,-1,95,97,-1,99,-1,101,103,105,-1,107,109,111,113,-1,-1,115,-1,117,-1,119,121,123,125,-1,-1,127,129,131,-1,133,-1,135,-1,137,-1,139,141,143,-1,145,-1,-1,147,-1,149,-1,-1,151,-1,-1,-1,-1,-1,-1,153,155,157,159,-1,-1,-1,-1,-1,-1,-1,-1,-1,-1,-1,-1,-1,-1,-1,-1,-1,-1,-1,-1,-1,-1,-1,-1,-1,-1,-1,-1,-1,-1,-1,-1,-1,-1,-1],"loss_changes":[8.234018E3,6.104372E3,2.2730674E3,3.671997E2,5.944592E2,1.603723E2,2.8795898E1,1.4535757E2,1.6403906E2,4.1369653E2,4.538963E2,1.6499214E1,0E0,0E0,0E0,5.891638E1,7.142001E1,3.6523438E1,6.8500275E1,2.9211739E1,4.5940186E1,9.1274155E1,3.467267E1,0E0,1.3099574E1,1.8133255E1,0E0,0E0,4.6463593E1,1.1057617E1,2.5742676E1,3.0400696E1,7.980716E1,0E0,9.254089E0,1.1637372E2,0E0,3.390396E1,1.8779415E1,0E0,0E0,4.6053247E0,0E0,7.549759E0,1.3473351E1,2.2726793E1,0E0,0E0,4.5477905E0,1.1714111E1,8.393921E0,1.8037682E1,4.447296E0,4.436317E1,1.3843239E1,0E0,0E0,0E0,0E0,7.637001E0,1.7503235E1,0E0,3.3899857E1,2.4381173E0,0E0,0E0,6.5216293E0,0E0,7.2406826E0,1.1196331E1,0E0,3.0531921E0,0E0,1.2988281E0,7.636078E0,1.8219337E0,0E0,1.6224014E1,2.7123518E1,2.0336334E1,8.598206E0,0E0,0E0,1.3696289E0,0E0,3.9688754E0,0E0,3.445118E0,5.550598E0,1.0604172E1,3.980174E0,0E0,0E0,2.6944275E0,4.1871004E0,2.1515427E0,0E0,1.7315035E1,0E0,3.5849476E0,0E0,1.2043457E0,0E0,3.208905E1,2.6210632E0,2.7266836E0,0E0,9.319313E0,0E0,0E0,1.2759397E1,0E0,8.254688E0,0E0,0E0,2.500124E0,0E0,0E0,0E0,0E0,0E0,0E0,8.374702E0,2.358478E0,5.3402786E0,4.370366E0,0E0,0E0,0E0,0E0,0E0,0E0,0E0,0E0,0E0,0E0,0E0,0E0,0E0,0E0,0E0,0E0,0E0,0E0,0E0,0E0,0E0,0E0,0E0,0E0,0E0,0E0,0E0,0E0,0E0,0E0,0E0,0E0,0E0,0E0,0E0],"parents":[2147483647,0,0,1,1,2,2,3,3,4,4,5,5,6,6,7,7,8,8,9,9,10,10,11,11,15,15,16,16,17,17,18,18,19,19,20,20,21,21,22,22,24,24,25,25,28,28,29,29,30,30,31,31,32,32,34,34,35,35,37,37,38,38,41,41,43,43,44,44,45,45,48,48,49,49,50,50,51,51,52,52,53,53,54,54,59,59,60,60,62,62,63,63,66,66,68,68,69,69,71,71,73,73,74,74,75,75,77,77,78,78,79,79,80,80,83,83,85,85,87,87,88,88,89,89,90,90,93,93,94,94,95,95,97,97,99,99,101,101,103,103,104,104,105,105,107,107,110,110,112,112,115,115,122,122,123,123,124,124,125,125],"right_children":[2,4,6,8,10,12,14,16,18,20,22,24,-1,-1,-1,26,28,30,32,34,36,38,40,-1,42,44,-1,-1,46,48,50,52,54,-1,56,58,-1,60,62,-1,-1,64,-1,66,68,70,-1,-1,72,74,76,78,80,82,84,-1,-1,-1,-1,86,88,-1,90,92,-1,-1,94,-1,96,98,-1,100,-1,102,104,106,-1,108,110,112,114,-1,-1,116,-1,118,-1,120,122,124,126,-1,-1,128,130,132,-1,134,-1,136,-1,138,-1,140,142,144,-1,146,-1,-1,148,-1,150,-1,-1,152,-1,-1,-1,-1,-1,-1,154,156,158,160,-1,-1,-1,-1,-1,-1,-1,-1,-1,-1,-1,-1,-1,-1,-1,-1,-1,-1,-1,-1,-1,-1,-1,-1,-1,-1,-1,-1,-1,-1,-1,-1,-1,-1,-1],"split_conditions":[1.5362775E0,1.2303442E0,1E0,-7.5539416E-1,-4.2937258E-1,1.0888013E0,1.5929587E0,6.082135E-1,6.3454705E-1,1E0,1E0,-2.2787745E-1,3.8308907E-2,6.2958725E-2,1.01316996E-1,-7.813261E-1,-1.1443738E0,1E0,1.0888013E0,1.5101384E0,1.3685955E0,-1.070948E-1,1.3916373E0,-2.8118663E-2,1E0,9.124713E-3,2.0435812E-2,6.2147006E-2,-7.9169893E-1,1.5066767E-1,1.1861241E0,-1.070948E-1,1.1645103E0,2.1011222E-3,-1.070948E-1,1.3060532E0,9.676696E-2,1.5233052E0,-4.4858065E-2,4.012839E-2,8.9311115E-2,2.3918769E-1,-2.8438078E-2,1E0,-1.0406458E0,-3.9566013E-1,4.3620624E-2,-3.3731323E-2,-2.368584E-1,1.01292215E-1,-2.6268664E-1,-2.6268664E-1,4.1154468E-1,-1.070948E-1,4.898575E-1,4.76937E-2,2.0349532E-2,9.4133355E-2,1.4176385E-2,3.239348E-1,1E0,-1.4632531E-2,5.1527256E-1,1.2224259E0,-1.2661753E-2,-3.0475143E-2,-4.855538E-1,1.1261716E-2,-3.9566013E-1,1.0657593E0,2.147539E-2,1E0,-2.9601786E-2,2.3327544E0,-2.368584E-1,1.01292215E-1,-0E0,-3.6973384E-1,-2.368584E-1,4.8497044E-2,4.6049365E-1,4.139288E-2,-1.463463E-3,2.8188482E-1,1.2767502E-3,1.3685955E0,2.519754E-2,1.8557665E0,-4.9931592E-1,1E0,1.4488237E0,8.532998E-3,-3.167613E-3,-6.598677E-1,-6.88715E-1,-9.315775E-1,-0E0,-9.10986E-1,1.01504065E-2,2.3918769E-1,-3.1690773E-2,-3.6641455E-1,-1.5580575E-2,-3.249234E-1,7.639199E-1,-3.4637854E-1,-2.5509397E-2,-5.220064E-1,-2.8479122E-2,2.4107486E-2,-2.108227E-1,-3.0946415E-2,1.5222494E-1,-3.1917043E-2,-1.0863487E-2,1E0,-2.9142005E-2,-2.3877044E-4,1.5102837E-2,1.202185E-2,3.226708E-2,5.7271656E-2,-2.8861862E-1,-2.5737098E-1,3.239348E-1,7.0286447E-1,-1.0497933E-2,-1.0459773E-2,-2.2431327E-2,-1.4370808E-2,1.5344964E-3,-5.918925E-3,-1.761296E-2,-2.0731531E-2,2.7304254E-3,-1.9685643E-2,-3.7441456E-3,-2.7137907E-2,-3.1214211E-2,-2.3117691E-2,7.7699595E-3,-2.8414967E-2,-1.48681225E-2,-1.7803103E-2,-2.08766E-3,-1.8466888E-2,-6.611807E-3,-2.7487395E-2,-0E0,-0E0,-1.73234E-2,-5.566284E-3,-2.0683875E-2,1.7144056E-2,4.7959477E-2,1.3708972E-3,1.439948E-2,1.4005703E-2,3.682643E-2,-7.904087E-3,6.39238E-3],"split_indices":[7,5,12,2,3,5,7,5,5,12,15,5,0,0,0,2,2,12,5,5,5,2,5,0,11,5,0,0,2,5,7,2,5,0,2,5,0,5,2,0,0,1,0,12,2,4,0,0,2,5,2,2,2,2,7,0,0,0,0,3,12,0,2,4,0,0,4,0,4,5,0,11,0,3,2,5,0,2,2,2,7,0,0,2,0,5,0,5,2,12,2,0,0,7,5,3,0,2,0,1,0,2,0,2,7,5,0,2,0,0,2,0,2,0,0,12,0,0,0,0,0,0,2,1,3,2,0,0,0,0,0,0,0,0,0,0,0,0,0,0,0,0,0,0,0,0,0,0,0,0,0,0,0,0,0,0,0,0,0,0,0],"split_type":[0,0,0,0,0,0,0,0,0,0,0,0,0,0,0,0,0,0,0,0,0,0,0,0,0,0,0,0,0,0,0,0,0,0,0,0,0,0,0,0,0,0,0,0,0,0,0,0,0,0,0,0,0,0,0,0,0,0,0,0,0,0,0,0,0,0,0,0,0,0,0,0,0,0,0,0,0,0,0,0,0,0,0,0,0,0,0,0,0,0,0,0,0,0,0,0,0,0,0,0,0,0,0,0,0,0,0,0,0,0,0,0,0,0,0,0,0,0,0,0,0,0,0,0,0,0,0,0,0,0,0,0,0,0,0,0,0,0,0,0,0,0,0,0,0,0,0,0,0,0,0,0,0,0,0,0,0,0,0,0,0],"sum_hessian":[8.338018E3,7.3959272E3,9.420902E2,6.3795225E3,1.01640485E3,2.2825461E2,7.138356E2,7.221963E2,5.657326E3,4.2989444E2,5.8651044E2,1.7484573E2,5.3408886E1,3.5473812E1,6.7836176E2,5.144243E2,2.0777197E2,4.5478696E3,1.1094567E3,9.844574E1,3.314487E2,4.699896E2,1.165208E2,6.95926E1,1.0525313E2,4.8004703E2,3.4377262E1,2.0150482E1,1.8762149E2,2.5781284E3,1.9697411E3,9.133621E2,1.9609456E2,3.7784725E1,6.0661015E1,6.402529E1,2.674234E2,2.2293709E2,2.4705252E2,2.268611E1,9.3834694E1,8.40608E1,2.1192331E1,3.076454E2,1.7240164E2,1.643704E2,2.325109E1,2.1435195E3,4.3460886E2,1.8709014E3,9.883973E1,4.2045547E2,4.9290662E2,7.4106094E1,1.2198847E2,2.8290207E1,3.2370808E1,3.7070023E1,2.695527E1,8.5864044E1,1.3707304E2,2.89649E1,2.1808762E2,5.60972E1,2.7963594E1,6.971211E1,2.3793327E2,2.0087864E1,1.5231378E2,1.2862561E2,3.5744793E1,9.6583206E1,3.3802567E2,1.2925729E3,5.783285E2,6.936307E1,2.947666E1,3.4762585E2,7.2829605E1,2.605776E2,2.3232903E2,3.740281E1,3.670328E1,9.702204E1,2.496643E1,4.6311714E1,3.9552334E1,4.601934E1,9.1053696E1,1.1430005E2,1.03787575E2,2.0204582E1,3.5892616E1,1.9212183E2,4.5811447E1,1.1993807E2,3.2375713E1,9.6272865E1,3.2352745E1,7.635758E1,2.0225622E1,1.2712759E3,2.1296978E1,2.5375534E2,3.2457318E2,4.6753967E1,2.2609102E1,2.5413374E2,9.349212E1,2.0298262E1,5.253135E1,1.268579E2,1.337197E2,2.0728763E2,2.5041409E1,6.741697E1,2.9605074E1,2.4784058E1,2.1527657E1,2.551553E1,2.0503809E1,4.818828E1,4.286542E1,5.87597E1,5.554035E1,6.9747055E1,3.4040516E1,3.4529964E1,1.5759186E2,2.5462452E1,2.0348995E1,2.758752E1,9.235055E1,4.6530666E1,4.97422E1,5.4507393E1,2.185019E1,4.285006E2,8.4277527E2,2.2500105E2,2.8754282E1,2.9437003E2,3.0203146E1,2.6128725E1,2.0625244E1,1.4976044E2,1.0437331E2,2.369076E1,2.8840588E1,2.4839441E1,1.0888026E2,2.044264E1,4.6974327E1,2.2084E1,2.078142E1,2.4534025E1,3.4225677E1,2.3707863E1,3.1832487E1,2.4696733E1,4.505032E1],"tree_param":{"num_deleted":"0","num_feature":"19","num_nodes":"161","size_leaf_vector":"1"}},{"base_weights":[-1.628571E-1,-5.09297E-1,2.5009482E0,-8.7480044E-1,1.6740167E0,2.6641712E0,-7.587655E-1,-2.0442589E-1,-9.620296E-1,2.492369E0,1.0552537E0,2.7892237E0,1.8490746E0,-9.166624E-3,-2.9341226E-2,-4.796229E-1,4.7797295E-1,-1.0055678E0,-2.7389756E-1,2.6511836E0,-2.1742666E-2,1.2974802E0,-3.3431944E-2,8.755663E-2,2.5817828E0,4.34561E-2,6.6183604E-2,-5.7179E-1,1.9518444E-2,5.7360698E-2,2.7657837E-1,-1.0917673E0,-8.3078384E-1,-7.076259E-2,-2.5041103E-2,2.9260383E0,1.9923564E0,1.5771887E0,3.2630104E-1,3.3029816E-1,-4.2949888E-1,1.9649025E0,7.811654E-2,1.4545651E-2,-6.23379E-1,8.164612E-2,3.9608605E-2,-1.1062596E0,-7.365616E-1,-6.4588964E-1,-9.632645E-1,1.5582187E-1,-4.5581678E-1,2.142744E0,8.808985E-2,3.075201E-2,2.1943905E0,1.1220739E0,1.8405838E0,-7.038229E-2,6.307357E-1,-2.1395797E-3,2.6208138E-2,-1.726563E-2,-3.2669483E-3,6.357558E-2,2.6169075E-2,-8.134221E-1,-4.7546026E-1,-3.177084E-1,3.6742973E-1,-1.0319557E0,-3.3013858E-2,-2.4596704E-2,-1.484171E-2,-7.378111E-1,-2.0500053E-1,-8.5241777E-1,-3.0672101E-2,-3.9737552E-1,1.0527693E0,-6.054297E-1,-0E0,8.78448E-2,1.765495E-2,6.9139965E-2,3.3943247E-2,4.7667146E-2,8.984422E-1,5.8256727E-2,1.3803241E0,5.424553E-3,-8.226988E-3,2.6306018E-2,-0E0,-8.621781E-1,-1.2149318E-2,-5.7606596E-1,-6.84373E-2,-1.5082212E-2,3.5060977E-3,8.859733E-2,2.0999502E-2,-3.1711426E-2,-9.496427E-1,-6.2793803E-1,-1.0300809E0,3.0832596E-2,-7.0285714E-1,-9.1198725E-1,1.5493681E-3,-3.1852839E-3,-1.4836755E-2,4.5021918E-2,5.7516475E-3,-2.3983607E-2,-8.552496E-3,-0E0,1.3085736E0,4.5705985E-2,2.5190124E-2,-1.4224872E-2,-2.6416885E-2,-2.1097485E-2,-1.1962344E-2,3.9198333E-3,-7.963466E-3,1.0700708E-2,-6.2528127E-3,-2.1594057E-2,-2.8484479E-2,-2.1930391E-2,-1.0806905E-2,-3.316309E-2,-2.0302992E-2,-2.7316729E-2,4.4575073E-3,-2.7089635E-2,-2.7645943E-3,4.6258558E-2,2.1964988E-2],"categories":[],"categories_nodes":[],"categories_segments":[],"categories_sizes":[],"default_left":[0,0,0,0,0,0,0,0,0,0,0,0,0,0,0,0,0,0,0,0,0,0,0,0,0,0,0,0,0,0,0,0,0,0,0,0,0,0,0,0,0,0,0,0,0,0,0,0,0,0,0,0,0,0,0,0,0,0,0,0,0,0,0,0,0,0,0,0,0,0,0,0,0,0,0,0,0,0,0,0,0,0,0,0,0,0,0,0,0,0,0,0,0,0,0,0,0,0,0,0,0,0,0,0,0,0,0,0,0,0,0,0,0,0,0,0,0,0,0,0,0,0,0,0,0,0,0,0,0,0,0,0,0,0,0,0,0,0,0,0,0],"id":3,"left_children":[1,3,5,7,9,11,13,15,17,19,21,23,25,-1,-1,27,29,31,33,35,-1,37,39,-1,41,-1,-1,43,-1,-1,45,47,49,51,-1,53,55,57,59,61,63,65,-1,-1,67,69,-1,71,73,75,77,79,81,83,-1,-1,85,87,89,91,93,-1,-1,-1,-1,-1,-1,95,97,99,101,103,-1,-1,-1,105,107,109,-1,111,113,115,-1,-1,-1,-1,-1,-1,117,-1,119,-1,-1,-1,-1,121,-1,123,125,-1,-1,127,-1,-1,129,131,133,-1,135,137,-1,-1,-1,-1,-1,-1,-1,-1,139,-1,-1,-1,-1,-1,-1,-1,-1,-1,-1,-1,-1,-1,-1,-1,-1,-1,-1,-1,-1,-1,-1],"loss_changes":[7.6756353E3,5.8771455E3,5.159326E2,3.6727783E2,5.2508984E2,7.619971E1,3.4679966E0,1.3774765E2,1.6529834E2,2.4022754E2,1.611513E2,1.9663574E1,7.7831116E0,0E0,0E0,5.6810226E1,6.113453E1,7.50376E1,4.006588E1,5.9554443E1,0E0,1.3188757E2,1.656747E1,0E0,2.474414E1,0E0,0E0,2.7975021E1,0E0,0E0,3.91601E1,1.433252E1,3.9762817E1,2.2733196E1,0E0,1.4759033E1,1.641858E1,3.829767E1,1.4501139E1,1.4827522E1,2.2251406E0,1.8861267E1,0E0,0E0,1.0963486E1,1.9047165E1,0E0,6.883301E0,1.5720367E0,2.870819E1,8.131714E0,8.152932E1,7.1300335E0,7.3282166E1,0E0,0E0,1.3857361E1,1.2016647E1,1.1409912E1,3.0843377E0,1.1639643E1,0E0,0E0,0E0,0E0,0E0,0E0,1.663208E0,1.0386532E1,6.8314357E0,9.092477E0,3.907959E0,0E0,0E0,0E0,1.6441101E1,8.614757E1,2.8752289E1,0E0,2.7588673E0,2.5386635E1,3.6292286E0,0E0,0E0,0E0,0E0,0E0,0E0,4.0570473E1,0E0,2.943039E0,0E0,0E0,0E0,0E0,1.3719025E0,0E0,3.6477356E0,2.7341874E0,0E0,0E0,5.590217E0,0E0,0E0,2.4741821E0,1.3853607E1,2.881195E0,0E0,2.217818E1,1.2471619E1,0E0,0E0,0E0,0E0,0E0,0E0,0E0,0E0,7.4769287E0,0E0,0E0,0E0,0E0,0E0,0E0,0E0,0E0,0E0,0E0,0E0,0E0,0E0,0E0,0E0,0E0,0E0,0E0,0E0,0E0,0E0,0E0],"parents":[2147483647,0,0,1,1,2,2,3,3,4,4,5,5,6,6,7,7,8,8,9,9,10,10,11,11,12,12,15,15,16,16,17,17,18,18,19,19,21,21,22,22,24,24,27,27,30,30,31,31,32,32,33,33,35,35,36,36,37,37,38,38,39,39,40,40,41,41,44,44,45,45,47,47,48,48,49,49,50,50,51,51,52,52,53,53,56,56,57,57,58,58,59,59,60,60,67,67,68,68,69,69,70,70,71,71,75,75,76,76,77,77,79,79,80,80,81,81,88,88,90,90,95,95,97,97,98,98,101,101,104,104,105,105,106,106,108,108,109,109,118,118],"right_children":[2,4,6,8,10,12,14,16,18,20,22,24,26,-1,-1,28,30,32,34,36,-1,38,40,-1,42,-1,-1,44,-1,-1,46,48,50,52,-1,54,56,58,60,62,64,66,-1,-1,68,70,-1,72,74,76,78,80,82,84,-1,-1,86,88,90,92,94,-1,-1,-1,-1,-1,-1,96,98,100,102,104,-1,-1,-1,106,108,110,-1,112,114,116,-1,-1,-1,-1,-1,-1,118,-1,120,-1,-1,-1,-1,122,-1,124,126,-1,-1,128,-1,-1,130,132,134,-1,136,138,-1,-1,-1,-1,-1,-1,-1,-1,140,-1,-1,-1,-1,-1,-1,-1,-1,-1,-1,-1,-1,-1,-1,-1,-1,-1,-1,-1,-1,-1,-1],"split_conditions":[1.6499939E0,1.2303442E0,1E0,-7.5539416E-1,-4.2937258E-1,-2.929888E-2,-6.983438E-1,6.082135E-1,9.999254E-1,1E0,1E0,-7.5539416E-1,9.2092466E-1,-9.166624E-3,-2.9341226E-2,-7.813261E-1,-1.1443738E0,1.1445901E-1,4.1154468E-1,-1.070948E-1,-2.1742666E-2,4.1154468E-1,-1.070948E-1,8.755663E-2,-2.54211E-1,4.34561E-2,6.6183604E-2,-1.1443738E0,1.9518444E-2,5.7360698E-2,-7.9169893E-1,1.2133454E0,-1.070948E-1,1.1645103E0,-2.5041103E-2,1.3685955E0,1.3685955E0,1.5233052E0,6.38117E-1,1.7504323E0,1.2562159E-2,5.7503724E-1,7.811654E-2,1.4545651E-2,-5.735056E-1,-9.10986E-1,3.9608605E-2,-1.070948E-1,-2.54211E-1,-2.6268664E-1,4.1154468E-1,1.0888013E0,5.5837274E-1,1.3060532E0,8.808985E-2,3.075201E-2,9.301842E-1,1.3060532E0,-1.070948E-1,1E0,1.1895039E0,-2.1395797E-3,2.6208138E-2,-1.726563E-2,-3.2669483E-3,6.357558E-2,2.6169075E-2,1.1041833E0,-4.6757507E-1,9.999254E-1,4.4921064E-1,-9.1584206E-1,-3.3013858E-2,-2.4596704E-2,-1.484171E-2,-3.6973384E-1,-2.368584E-1,3.026304E-1,-3.0672101E-2,1.0427175E0,7.2832346E-2,-2.5737098E-1,-0E0,8.78448E-2,1.765495E-2,6.9139965E-2,3.3943247E-2,4.7667146E-2,1.3685955E0,5.8256727E-2,7.366813E-2,5.424553E-3,-8.226988E-3,2.6306018E-2,-0E0,-6.424105E-1,-1.2149318E-2,-9.10986E-1,1.2133454E0,-1.5082212E-2,3.5060977E-3,-4.2937258E-1,2.0999502E-2,-3.1711426E-2,-7.5157267E-1,-5.220064E-1,-3.4048256E-1,3.0832596E-2,-1.5906247E-1,1.7617879E0,1.5493681E-3,-3.1852839E-3,-1.4836755E-2,4.5021918E-2,5.7516475E-3,-2.3983607E-2,-8.552496E-3,-0E0,1.4903882E0,4.5705985E-2,2.5190124E-2,-1.4224872E-2,-2.6416885E-2,-2.1097485E-2,-1.1962344E-2,3.9198333E-3,-7.963466E-3,1.0700708E-2,-6.2528127E-3,-2.1594057E-2,-2.8484479E-2,-2.1930391E-2,-1.0806905E-2,-3.316309E-2,-2.0302992E-2,-2.7316729E-2,4.4575073E-3,-2.7089635E-2,-2.7645943E-3,4.6258558E-2,2.1964988E-2],"split_indices":[6,5,11,2,3,2,2,5,5,11,13,2,5,0,0,2,2,5,2,2,0,2,2,0,5,0,0,2,0,0,2,6,2,5,0,5,5,5,4,5,6,3,0,0,5,2,0,2,5,2,2,5,6,5,0,0,2,5,2,18,2,0,0,0,0,0,0,6,4,5,6,5,0,0,0,2,2,2,0,5,3,1,0,0,0,0,0,0,5,0,1,0,0,0,0,6,0,2,6,0,0,3,0,0,6,2,2,0,2,4,0,0,0,0,0,0,0,0,5,0,0,0,0,0,0,0,0,0,0,0,0,0,0,0,0,0,0,0,0,0,0],"split_type":[0,0,0,0,0,0,0,0,0,0,0,0,0,0,0,0,0,0,0,0,0,0,0,0,0,0,0,0,0,0,0,0,0,0,0,0,0,0,0,0,0,0,0,0,0,0,0,0,0,0,0,0,0,0,0,0,0,0,0,0,0,0,0,0,0,0,0,0,0,0,0,0,0,0,0,0,0,0,0,0,0,0,0,0,0,0,0,0,0,0,0,0,0,0,0,0,0,0,0,0,0,0,0,0,0,0,0,0,0,0,0,0,0,0,0,0,0,0,0,0,0,0,0,0,0,0,0,0,0,0,0,0,0,0,0,0,0,0,0,0,0],"sum_hessian":[8.3136045E3,7.3588564E3,9.547485E2,6.3051943E3,1.0536621E3,9.099148E2,4.48337E1,7.2813403E2,5.5770605E3,4.4986478E2,6.0379736E2,7.828187E2,1.2709603E2,2.0285843E1,2.4547855E1,5.203695E2,2.0776454E2,5.242869E3,3.341914E2,4.2961865E2,2.0246128E1,4.9423077E2,1.0956656E2,3.2359732E2,4.592214E2,8.138843E1,4.5707603E1,4.8399985E2,3.6369644E1,2.1157005E1,1.8660754E2,3.499147E3,1.7437219E3,2.5296158E2,8.1229836E1,2.9628363E2,1.3333502E2,3.8179874E2,1.12432045E2,5.6091515E1,5.3475044E1,9.6651085E1,3.625703E2,2.0262913E1,4.6373694E2,1.6160019E2,2.500735E1,3.3545417E3,1.4460522E2,7.3674664E2,1.0069753E3,1.5862474E2,9.4336845E1,5.5082462E1,2.4120117E2,2.7643522E1,1.0569149E2,1.4592E2,2.3587874E2,4.8289955E1,6.414209E1,3.3453484E1,2.2638031E1,3.1139017E1,2.2336025E1,7.4799324E1,2.1851763E1,1.9544347E2,2.6829346E2,6.592731E1,9.567288E1,1.3343074E3,2.0202344E3,8.517436E1,5.943086E1,6.065391E2,1.3020752E2,5.12925E2,4.9405026E2,9.829901E1,6.032573E1,7.187924E1,2.2457602E1,3.2367287E1,2.2715176E1,8.312989E1,2.2561602E1,3.677833E1,1.0914167E2,1.5843958E2,7.7439156E1,2.0153082E1,2.8136873E1,4.2699738E1,2.1442354E1,1.689203E2,2.6523159E1,2.1247264E2,5.582082E1,4.580199E1,2.0125319E1,5.7478428E1,3.8194454E1,6.7170856E2,6.625988E2,4.4867374E2,1.5786543E2,3.510202E1,9.510549E1,4.8225458E2,3.067042E1,3.2905716E1,6.539329E1,3.5495815E1,2.4829912E1,3.6754105E1,3.5125137E1,3.5276447E1,7.386522E1,4.9024734E1,2.8414425E1,2.9503101E1,1.394172E2,9.790588E1,1.1456676E2,2.6376171E1,2.9444649E1,3.1103792E1,2.6374636E1,1.3760349E2,5.249953E2,2.8334235E2,1.6533139E2,1.0605981E2,5.180562E1,7.418361E1,2.0921885E1,4.611558E2,2.109881E1,4.2919888E1,3.0945337E1],"tree_param":{"num_deleted":"0","num_feature":"19","num_nodes":"141","size_leaf_vector":"1"}},{"base_weights":[-1.5613747E-1,-5.473487E-1,2.0831964E0,-8.858974E-1,2.2299707E0,1.0472003E0,2.550186E0,-1.0251243E0,-6.678366E-1,-6.1242455E-1,8.9317635E-2,1.3103211E0,-6.5442646E-1,8.9902975E-2,1.8944033E0,-3.2794684E-2,-8.749948E-1,-7.3901945E-1,-1.0128553E-1,-2.7094148E-2,-2.6512793E-1,1.5025914E0,3.5115056E-2,-2.715034E-2,-5.429187E-3,1.4636635E0,8.491131E-2,-9.245468E-1,-2.646046E-1,-8.225822E-1,-4.5522228E-1,-6.738957E-1,4.937227E-1,8.325955E-3,-1.2490935E-2,2.1067811E-2,1.5610428E0,8.773597E-3,-4.8624943E-3,1.7381256E0,1.0778161E0,-9.696396E-1,-3.5358223E-1,4.360314E-2,-7.1393204E-1,-7.156834E-1,-9.9169004E-1,-1.1191538E-1,-6.059994E-1,-3.8628373E-1,-2.3207037E-2,1.0362289E0,-4.7896746E-1,5.3236198E-2,1.37625E0,3.6378004E-2,5.4455355E-2,6.265154E-1,3.8155373E-2,-1.0299954E0,-8.984145E-1,-4.798486E-1,-1.0336107E-1,-3.9252433E-1,3.3879247E-2,-2.655851E-2,-1.1447385E-2,-8.1567997E-1,-3.9251313E-1,-2.9531395E-2,-7.631391E-1,-2.1888813E-2,5.174642E-2,-6.69973E-1,-1.7428136E-3,-2.1991286E-2,5.851049E-4,5.053447E-1,6.610019E-2,-2.518461E-2,1.1050072E-3,7.263258E-3,1.5400305E0,2.5601048E-2,4.035769E-3,-7.039137E-1,-3.0232625E-2,-8.204069E-1,-2.8908597E-2,-1.3901126E-3,-1.7532483E-2,3.8710388E-3,-9.587849E-3,5.007973E-3,-2.103005E-2,-8.348486E-1,-4.494172E-3,1.9538414E-2,-5.335772E-1,-2.6088502E-2,-8.624127E-3,1.6840214E-2,-5.2693672E-2,-2.1278754E-2,-4.4719812E-1,3.5154667E-2,5.4280493E-2,1.2185099E0,1.7379165E0,-2.3955967E-2,-1.0872194E-2,-2.4494952E-2,-1.4658888E-3,-2.506168E-2,-1.9228825E-2,-1.7781803E-2,-4.510099E-3,-6.047451E-3,5.474917E-3,-1.9159943E-2,-0E0,-4.562266E-3,8.8649485E-3,4.4530567E-2,1.9903874E-2,6.9230326E-2,3.982294E-2],"categories":[],"categories_nodes":[],"categories_segments":[],"categories_sizes":[],"default_left":[0,0,0,0,0,0,0,0,0,0,0,0,0,0,0,0,0,0,0,0,0,0,0,0,0,0,0,0,0,0,0,0,0,0,0,0,0,0,0,0,0,0,0,0,0,0,0,0,0,0,0,0,0,0,0,0,0,0,0,0,0,0,0,0,0,0,0,0,0,0,0,0,0,0,0,0,0,0,0,0,0,0,0,0,0,0,0,0,0,0,0,0,0,0,0,0,0,0,0,0,0,0,0,0,0,0,0,0,0,0,0,0,0,0,0,0,0,0,0,0,0,0,0,0,0,0,0],"id":4,"left_children":[1,3,5,7,9,11,13,15,17,19,-1,21,23,-1,25,-1,27,29,31,-1,33,35,37,-1,-1,39,-1,41,43,45,47,49,51,-1,-1,-1,53,-1,-1,55,57,59,61,63,65,67,69,71,73,75,-1,77,79,-1,81,-1,-1,83,-1,85,87,89,91,93,-1,-1,-1,95,97,-1,99,-1,101,103,-1,-1,-1,105,-1,-1,-1,-1,107,-1,-1,109,-1,111,-1,-1,-1,-1,-1,-1,-1,113,-1,-1,115,-1,-1,-1,117,-1,119,-1,121,123,125,-1,-1,-1,-1,-1,-1,-1,-1,-1,-1,-1,-1,-1,-1,-1,-1,-1,-1],"loss_changes":[7.248186E3,6.6269014E3,5.854385E2,1.8744873E2,1.9463098E3,1.7595996E2,3.0884717E2,6.507788E1,9.81228E1,1.9683113E1,0E0,8.0927246E1,5.742281E0,0E0,1.7379175E2,0E0,5.0309204E1,4.9620728E1,9.586553E1,0E0,9.515512E0,8.141785E0,2.88021E0,0E0,0E0,2.422638E1,0E0,3.8822876E1,1.9249273E1,2.7045654E1,2.5255302E1,3.7876816E0,7.410832E1,0E0,0E0,0E0,5.5892944E0,0E0,0E0,4.094818E0,1.1244675E1,2.2755127E0,3.1750393E0,4.188127E1,1.6148453E0,3.1735962E1,2.3062134E0,1.7719263E1,1.1345428E1,9.00708E0,0E0,5.5016624E1,1.1279386E1,0E0,2.9862244E1,0E0,0E0,5.650406E0,0E0,3.199768E0,2.3845215E0,3.7553635E0,2.8578236E0,1.237982E1,0E0,0E0,0E0,8.735474E0,3.9091873E1,0E0,5.6469955E0,0E0,7.750467E0,3.1537933E0,0E0,0E0,0E0,2.0403542E1,0E0,0E0,0E0,0E0,1.854187E0,0E0,0E0,1.0133934E0,0E0,1.0784851E1,0E0,0E0,0E0,0E0,0E0,0E0,0E0,2.2328491E0,0E0,0E0,6.48011E0,0E0,0E0,0E0,4.292153E0,0E0,9.020828E0,0E0,2.6851974E0,7.3128433E0,8.891815E0,0E0,0E0,0E0,0E0,0E0,0E0,0E0,0E0,0E0,0E0,0E0,0E0,0E0,0E0,0E0,0E0,0E0,0E0],"parents":[2147483647,0,0,1,1,2,2,3,3,4,4,5,5,6,6,7,7,8,8,9,9,11,11,12,12,14,14,16,16,17,17,18,18,20,20,21,21,22,22,25,25,27,27,28,28,29,29,30,30,31,31,32,32,36,36,39,39,40,40,41,41,42,42,43,43,44,44,45,45,46,46,47,47,48,48,49,49,51,51,52,52,54,54,57,57,59,59,60,60,61,61,62,62,63,63,67,67,68,68,70,70,72,72,73,73,77,77,82,82,85,85,87,87,95,95,98,98,102,102,104,104,106,106,107,107,108,108],"right_children":[2,4,6,8,10,12,14,16,18,20,-1,22,24,-1,26,-1,28,30,32,-1,34,36,38,-1,-1,40,-1,42,44,46,48,50,52,-1,-1,-1,54,-1,-1,56,58,60,62,64,66,68,70,72,74,76,-1,78,80,-1,82,-1,-1,84,-1,86,88,90,92,94,-1,-1,-1,96,98,-1,100,-1,102,104,-1,-1,-1,106,-1,-1,-1,-1,108,-1,-1,110,-1,112,-1,-1,-1,-1,-1,-1,-1,114,-1,-1,116,-1,-1,-1,118,-1,120,-1,122,124,126,-1,-1,-1,-1,-1,-1,-1,-1,-1,-1,-1,-1,-1,-1,-1,-1,-1,-1],"split_conditions":[3E0,1.6499939E0,1E0,1.4079258E-1,1E0,1E0,-4.2937258E-1,1E0,1E0,9.124713E-3,8.9317635E-2,1E0,1.6516813E0,8.9902975E-2,1.3257478E0,-3.2794684E-2,1E0,4.6049365E-1,1E0,-2.7094148E-2,6.38117E-1,-1.0812212E0,2.156168E-1,-2.715034E-2,-5.429187E-3,-3.6085468E-2,8.491131E-2,1.1221586E0,7.3609225E-2,-2.618122E-1,1.6665708E-1,-3.9566013E-1,1.8959819E-1,8.325955E-3,-1.2490935E-2,2.1067811E-2,1.9633614E-1,8.773597E-3,-4.8624943E-3,-7.968423E-1,2.7060756E-1,-5.735056E-1,-2.2458576E-1,-3.6658752E-1,2.4070986E-1,-3.3232972E-1,1.0229673E0,1E0,1.1645103E0,-9.232768E-1,-2.3207037E-2,2.1299183E-2,6.675349E-1,5.3236198E-2,-9.937668E-2,3.6378004E-2,5.4455355E-2,4.2128733E-1,3.8155373E-2,-1.1427957E0,-2.2985509E-1,-5.3978622E-2,-2.0500557E-2,-9.2463374E-1,3.3879247E-2,-2.655851E-2,-1.1447385E-2,1.4903882E0,-9.0865517E-1,-2.9531395E-2,1.5298912E-1,-2.1888813E-2,-5.637044E-1,5.7503724E-1,-1.7428136E-3,-2.1991286E-2,5.851049E-4,-7.574845E-1,6.610019E-2,-2.518461E-2,1.1050072E-3,7.263258E-3,6.954043E-1,2.5601048E-2,4.035769E-3,-1.0918741E0,-3.0232625E-2,6.675349E-1,-2.8908597E-2,-1.3901126E-3,-1.7532483E-2,3.8710388E-3,-9.587849E-3,5.007973E-3,-2.103005E-2,-6.2662494E-1,-4.494172E-3,1.9538414E-2,1.0229673E0,-2.6088502E-2,-8.624127E-3,1.6840214E-2,1.1041833E0,-2.1278754E-2,1.1221586E0,3.5154667E-2,-5.5745244E-1,1.1327504E0,9.950212E-1,-2.3955967E-2,-1.0872194E-2,-2.4494952E-2,-1.4658888E-3,-2.506168E-2,-1.9228825E-2,-1.7781803E-2,-4.510099E-3,-6.047451E-3,5.474917E-3,-1.9159943E-2,-0E0,-4.562266E-3,8.8649485E-3,4.4530567E-2,1.9903874E-2,6.9230326E-2,3.982294E-2],"split_indices":[0,6,12,5,12,11,3,12,14,5,0,14,5,0,7,0,14,7,12,0,4,7,4,0,0,4,0,7,8,8,8,4,8,0,0,0,8,0,0,7,7,5,5,7,7,7,5,12,5,7,0,7,6,0,7,0,0,8,0,8,8,8,5,8,0,0,0,5,8,0,7,0,8,3,0,0,0,8,0,0,0,0,7,0,0,7,0,6,0,0,0,0,0,0,0,7,0,0,5,0,0,0,6,0,7,0,7,8,6,0,0,0,0,0,0,0,0,0,0,0,0,0,0,0,0,0,0],"split_type":[0,0,0,0,0,0,0,0,0,0,0,0,0,0,0,0,0,0,0,0,0,0,0,0,0,0,0,0,0,0,0,0,0,0,0,0,0,0,0,0,0,0,0,0,0,0,0,0,0,0,0,0,0,0,0,0,0,0,0,0,0,0,0,0,0,0,0,0,0,0,0,0,0,0,0,0,0,0,0,0,0,0,0,0,0,0,0,0,0,0,0,0,0,0,0,0,0,0,0,0,0,0,0,0,0,0,0,0,0,0,0,0,0,0,0,0,0,0,0,0,0,0,0,0,0,0,0],"sum_hessian":[8.269773E3,7.0418125E3,1.227961E3,6.278464E3,7.6334875E2,3.8459225E2,8.4336884E2,3.8238152E3,2.4546487E3,1.8210736E2,5.812414E2,3.3404468E2,5.0547585E1,4.3794818E2,4.0542065E2,2.1065571E3,1.717258E3,2.178544E3,2.761049E2,8.929188E1,9.281548E1,2.892657E2,4.477899E1,2.8176535E1,2.237105E1,2.939543E2,1.1146634E2,1.5857491E3,1.3150888E2,1.6769047E3,5.0163913E2,1.4133943E2,1.3476544E2,2.0178274E1,7.263721E1,2.3958055E1,2.6530765E2,2.0718363E1,2.4060629E1,1.6540813E2,1.285462E2,1.4665968E3,1.1915237E2,7.806071E1,5.3448166E1,1.0385624E3,6.383423E2,1.5626123E2,3.453779E2,5.0785862E1,9.055357E1,8.703026E1,4.7735184E1,9.1013725E1,1.7429391E2,5.009111E1,1.1531701E2,5.0796467E1,7.774973E1,7.691665E2,6.974303E2,7.523167E1,4.3920696E1,5.701477E1,2.104594E1,2.7196718E1,2.625145E1,7.8812225E2,2.5044017E2,5.3214514E2,1.0619714E2,3.0687168E1,1.25574066E2,3.0706927E2,3.830864E1,2.6264282E1,2.452158E1,6.4322754E1,2.2707508E1,2.6962212E1,2.0772972E1,2.3705112E1,1.505888E2,3.0174356E1,2.062211E1,6.527458E1,7.038919E2,4.2747372E2,2.6995657E2,2.0145641E1,5.5086025E1,2.013912E1,2.3781578E1,2.0866179E1,3.6148594E1,7.638251E2,2.4297188E1,2.720077E1,2.232394E2,7.704883E1,2.9148317E1,2.009391E1,1.05480156E2,2.2344495E2,8.362432E1,2.2315527E1,4.2007225E1,6.575799E1,8.483081E1,4.150448E1,2.3770103E1,4.0718903E2,2.0284704E1,5.9763806E2,1.6618703E2,1.7769641E2,4.5542988E1,6.644598E1,3.903418E1,5.6100044E1,2.7524277E1,2.1372879E1,2.0634346E1,3.5981678E1,2.977631E1,2.28172E1,6.201361E1],"tree_param":{"num_deleted":"0","num_feature":"19","num_nodes":"127","size_leaf_vector":"1"}},{"base_weights":[-1.5846354E-1,-5.387953E-1,1.965006E0,-7.80957E-1,-1.3344349E-1,2.587532E0,1.4572335E0,-9.279353E-1,-5.0664467E-1,9.184508E-2,-3.827465E-1,7.736392E-2,-1.0441848E-2,1.6825066E0,2.336374E-1,-9.8940915E-1,-7.1819043E-1,-3.0940232E-1,-6.4632946E-1,1.4226791E-1,-3.252441E-2,-5.477956E-1,-1.1950112E-3,2.007947E0,3.8571033E-1,3.454923E-1,-2.013997E-4,-3.008676E-2,-8.7351716E-1,-1.4125602E-1,-7.886842E-1,-2.5891665E-1,-3.0338021E-2,-6.764624E-1,8.126144E-3,-9.379011E-2,3.3787078E-1,-3.4980258E-1,-6.905365E-1,-3.416493E-1,1.11084275E-1,7.1479775E-2,5.218004E-2,2.2628094E-1,2.6984641E-2,4.6320304E-1,-0E0,-1.983535E-2,-9.3013966E-1,5.4275774E-4,-8.049004E-3,-6.3497436E-1,-2.5692223E-2,-3.4643584E-1,-0E0,-6.4275134E-1,-3.2094155E-2,1.1492274E-1,-2.318104E-1,1.8932337E-1,6.4854336E-1,-4.943282E-1,-1.39621E-1,-2.7783329E-2,-5.307337E-1,4.542066E-3,-5.816686E-1,3.0066964E-1,-3.5461605E-2,3.564268E-1,-2.7363792E-3,7.87905E-3,1.9340599E-2,-2.7008243E-2,-1.4066412E-2,-2.4058072E-2,-5.245853E-1,-3.9171225E-1,7.3140524E-3,1.8960227E-1,-1.8425046E-1,-6.631023E-1,-0E0,2.889278E-1,-8.0573E-2,1.8042623E-1,-3.087484E-1,7.550081E-1,1.01565465E-1,9.6438235E-1,4.6795148E-1,-5.5884606E-1,-0E0,2.1308443E-1,-2.9751948E-1,-7.077654E-1,-2.2978431E-1,-2.0371428E-2,-6.3031134E-3,1.5505091E-3,3.87405E-1,-1.9796914E-1,1.0339219E-2,1.5198475E-1,1.9063752E-2,-5.9559005E-1,-4.5764153E-3,-3.0170673E-1,-1.9505378E-2,1.5287588E-2,-1.852743E-2,-3.101987E-1,1.4028483E-3,-6.8484986E-1,-2.4315779E-1,1.3551599E-1,1.6735725E-2,-2.86567E-1,4.8915623E-3,-0E0,1.159882E-2,-3.5742316E-1,1.9181453E-3,2.8447857E-2,1.441089E-2,-3.0515602E-1,1.9791988E-1,3.3042442E-2,1.5269811E-2,6.578476E-1,1.4374411E-1,-3.8165453E-1,-6.668782E-1,-9.137426E-4,1.2441571E-2,-1.4399386E-2,-1.8278283E-1,-5.9699947E-1,-2.624184E-2,-0E0,-9.174534E-3,1.671432E-2,1.8080242E-1,-3.133501E-1,-0E0,-2.002748E-3,1.2734762E-2,-5.0464035E-3,-1.8817822E-2,-1.0546206E-2,-2.1962703E-3,5.9932605E-3,-8.567834E-3,-1.5399174E-2,-0E0,-2.1444699E-2,-1.646811E-2,-1.4586942E-2,-0E0,-4.8135477E-3,8.3440775E-3,-2.8963946E-3,-1.4632511E-2,-1.6888868E-2,-7.7555105E-3,-0E0,-1.2439426E-2,1.3200621E-3,1.2596459E-2,1.2496308E-2,2.3257947E-2,1.2788581E-2,-1.8885757E-3,-1.4019844E-2,-1.3557946E-3,-2.0991532E-2,-8.605616E-3,-0E0,-8.427229E-3,-2.0680223E-2,-1.1891413E-2,9.395799E-3,-0E0,-3.695017E-3,-1.3362307E-2],"categories":[],"categories_nodes":[],"categories_segments":[],"categories_sizes":[],"default_left":[0,0,0,0,0,0,0,0,0,0,0,0,0,0,0,0,0,0,0,0,0,0,0,0,0,0,0,0,0,0,0,0,0,0,0,0,0,0,0,0,0,0,0,0,0,0,0,0,0,0,0,0,0,0,0,0,0,0,0,0,0,0,0,0,0,0,0,0,0,0,0,0,0,0,0,0,0,0,0,0,0,0,0,0,0,0,0,0,0,0,0,0,0,0,0,0,0,0,0,0,0,0,0,0,0,0,0,0,0,0,0,0,0,0,0,0,0,0,0,0,0,0,0,0,0,0,0,0,0,0,0,0,0,0,0,0,0,0,0,0,0,0,0,0,0,0,0,0,0,0,0,0,0,0,0,0,0,0,0,0,0,0,0,0,0,0,0,0,0,0,0,0,0,0,0,0,0,0,0,0,0,0,0,0,0],"id":5,"left_children":[1,3,5,7,9,11,13,15,17,19,21,-1,-1,23,25,27,29,31,33,35,-1,37,39,41,43,45,-1,-1,47,49,51,53,-1,55,-1,57,59,61,63,65,67,-1,-1,69,-1,71,-1,-1,73,-1,-1,75,-1,77,79,81,-1,83,85,87,89,91,93,-1,95,-1,97,99,101,103,-1,-1,-1,-1,-1,-1,105,107,-1,109,111,113,-1,115,117,119,121,123,125,127,129,131,-1,133,135,137,139,-1,-1,-1,141,143,-1,145,-1,147,-1,149,-1,-1,151,153,-1,155,157,159,-1,161,-1,-1,-1,163,-1,-1,-1,165,167,-1,-1,169,171,173,175,-1,-1,-1,177,179,-1,-1,-1,-1,181,183,-1,-1,-1,-1,-1,-1,-1,-1,-1,-1,-1,-1,-1,-1,-1,-1,-1,-1,-1,-1,-1,-1,-1,-1,-1,-1,-1,-1,-1,-1,-1,-1,-1,-1,-1,-1,-1,-1,-1,-1,-1],"loss_changes":[6.6496875E3,6.8443994E2,3.824336E2,1.7371484E2,1.4729974E2,1.9521533E2,1.8887073E2,3.3308838E1,4.083606E1,8.457728E1,7.7848785E1,0E0,0E0,2.4321191E2,3.3253107E0,1.16657715E1,2.554184E1,2.2456783E1,2.5834503E1,6.1391945E1,0E0,2.2943237E1,1.4828752E1,2.7219238E1,9.150644E0,2.8865747E0,0E0,0E0,4.900635E0,1.9590918E0,6.9561462E0,1.4007324E1,0E0,9.593658E0,0E0,1.743517E1,3.2432E1,1.0503742E1,1.9678467E1,1.2252787E1,8.203916E0,0E0,0E0,4.459907E0,0E0,9.499893E-1,0E0,0E0,1.013794E0,0E0,0E0,3.4155655E0,0E0,1.2783848E1,5.4483347E0,1.0352081E1,0E0,8.328255E0,1.1805643E1,2.3671944E1,1.0794754E1,7.4139175E0,8.980739E0,0E0,1.604203E1,0E0,1.9123516E0,2.2612886E0,1.035852E1,3.601634E0,0E0,0E0,0E0,0E0,0E0,0E0,3.579361E0,9.696899E0,0E0,6.16134E0,2.5434093E0,5.914337E0,0E0,4.974985E0,5.9857473E0,2.568981E0,5.994671E0,1.2903786E0,1.706289E1,3.5028229E0,8.508171E0,2.0953865E0,0E0,3.0256646E0,1.7629166E0,1.9292908E0,2.8085833E0,0E0,0E0,0E0,2.7296495E0,2.7725706E0,0E0,3.6016982E0,0E0,2.652588E0,0E0,4.502201E0,0E0,0E0,3.4234138E0,3.358707E0,0E0,2.9715576E0,3.343463E0,4.4977946E0,0E0,1.9700732E0,0E0,0E0,0E0,4.3745995E0,0E0,0E0,0E0,3.4649353E0,1.2526361E1,0E0,0E0,1.2163696E0,4.3585753E0,2.4066238E0,1.2627335E0,0E0,0E0,0E0,1.3284194E0,1.4369774E0,0E0,0E0,0E0,0E0,1.3213694E0,1.4164524E0,0E0,0E0,0E0,0E0,0E0,0E0,0E0,0E0,0E0,0E0,0E0,0E0,0E0,0E0,0E0,0E0,0E0,0E0,0E0,0E0,0E0,0E0,0E0,0E0,0E0,0E0,0E0,0E0,0E0,0E0,0E0,0E0,0E0,0E0,0E0,0E0,0E0,0E0,0E0,0E0,0E0],"parents":[2147483647,0,0,1,1,2,2,3,3,4,4,5,5,6,6,7,7,8,8,9,9,10,10,13,13,14,14,15,15,16,16,17,17,18,18,19,19,21,21,22,22,23,23,24,24,25,25,28,28,29,29,30,30,31,31,33,33,35,35,36,36,37,37,38,38,39,39,40,40,43,43,45,45,48,48,51,51,53,53,54,54,55,55,57,57,58,58,59,59,60,60,61,61,62,62,64,64,66,66,67,67,68,68,69,69,76,76,77,77,79,79,80,80,81,81,83,83,84,84,85,85,86,86,87,87,88,88,89,89,90,90,91,91,93,93,94,94,95,95,96,96,100,100,101,101,103,103,105,105,107,107,110,110,111,111,113,113,114,114,115,115,117,117,121,121,125,125,126,126,129,129,130,130,131,131,132,132,136,136,137,137,142,142,143,143],"right_children":[2,4,6,8,10,12,14,16,18,20,22,-1,-1,24,26,28,30,32,34,36,-1,38,40,42,44,46,-1,-1,48,50,52,54,-1,56,-1,58,60,62,64,66,68,-1,-1,70,-1,72,-1,-1,74,-1,-1,76,-1,78,80,82,-1,84,86,88,90,92,94,-1,96,-1,98,100,102,104,-1,-1,-1,-1,-1,-1,106,108,-1,110,112,114,-1,116,118,120,122,124,126,128,130,132,-1,134,136,138,140,-1,-1,-1,142,144,-1,146,-1,148,-1,150,-1,-1,152,154,-1,156,158,160,-1,162,-1,-1,-1,164,-1,-1,-1,166,168,-1,-1,170,172,174,176,-1,-1,-1,178,180,-1,-1,-1,-1,182,184,-1,-1,-1,-1,-1,-1,-1,-1,-1,-1,-1,-1,-1,-1,-1,-1,-1,-1,-1,-1,-1,-1,-1,-1,-1,-1,-1,-1,-1,-1,-1,-1,-1,-1,-1,-1,-1,-1,-1,-1,-1],"split_conditions":[3E0,1.3184434E-1,-4.2937258E-1,1.1445901E-1,7.2832346E-2,1E0,1E0,-2.1676423E-1,-4.2937258E-1,1E0,1.1327504E0,7.736392E-2,-1.0441848E-2,1E0,2.3918769E-1,-5.735056E-1,-9.315775E-1,1E0,6.9516767E-3,5.482234E-1,-3.252441E-2,5.7503724E-1,-3.4637854E-1,-5.8841014E-1,1.4022132E0,8.2613975E-1,-2.013997E-4,-3.008676E-2,-6.8047506E-1,-4.2289054E-1,7.2832346E-2,9.5054996E-1,-3.0338021E-2,1E0,8.126144E-3,-6.8047506E-1,4.930041E-1,5.325597E-1,1E0,5.7503724E-1,-2.5737098E-1,7.1479775E-2,5.218004E-2,4.8789674E-1,2.6984641E-2,3.1736252E-1,-0E0,-1.983535E-2,2.2254224E0,5.4275774E-4,-8.049004E-3,-1.0508016E0,-2.5692223E-2,-1.2597914E-1,1.1645103E0,1.4080958E0,-3.2094155E-2,5.032765E-1,-7.539297E-1,-7.539297E-1,-4.2289054E-1,9.242164E-1,8.628512E-1,-2.7783329E-2,7.192201E-1,4.542066E-3,4.0470725E-1,1.7212299E0,2.8405118E0,1.8557665E0,-2.7363792E-3,7.87905E-3,1.9340599E-2,-2.7008243E-2,-1.4066412E-2,-2.4058072E-2,1E0,1E0,7.3140524E-3,-7.552348E-1,1.352137E0,2.081652E0,-0E0,2.3918769E-1,7.366813E-2,3.6130354E-1,9.999254E-1,-6.8047506E-1,-9.9484277E-1,1E0,1E0,-5.8841014E-1,-0E0,5.784163E-1,-7.2163194E-1,1.5794472E0,9.84676E-1,-2.0371428E-2,-6.3031134E-3,1.5505091E-3,2.0202343E0,7.357464E-1,1.0339219E-2,3.239348E-1,1.9063752E-2,-7.539297E-1,-4.5764153E-3,-4.7416985E-1,-1.9505378E-2,1.5287588E-2,-9.185143E-2,-2.5737098E-1,1.4028483E-3,7.9913193E-1,2E0,1.5066767E-1,1.6735725E-2,-4.2289054E-1,4.8915623E-3,-0E0,1.159882E-2,-4.2289054E-1,1.9181453E-3,2.8447857E-2,1.441089E-2,-4.2289054E-1,1.5566314E0,3.3042442E-2,1.5269811E-2,7.9913193E-1,8.386323E-1,1E0,1E0,-9.137426E-4,1.2441571E-2,-1.4399386E-2,1.9016802E-1,3.6130354E-1,-2.624184E-2,-0E0,-9.174534E-3,1.671432E-2,3.382944E-1,3.7779474E-1,-0E0,-2.002748E-3,1.2734762E-2,-5.0464035E-3,-1.8817822E-2,-1.0546206E-2,-2.1962703E-3,5.9932605E-3,-8.567834E-3,-1.5399174E-2,-0E0,-2.1444699E-2,-1.646811E-2,-1.4586942E-2,-0E0,-4.8135477E-3,8.3440775E-3,-2.8963946E-3,-1.4632511E-2,-1.6888868E-2,-7.7555105E-3,-0E0,-1.2439426E-2,1.3200621E-3,1.2596459E-2,1.2496308E-2,2.3257947E-2,1.2788581E-2,-1.8885757E-3,-1.4019844E-2,-1.3557946E-3,-2.0991532E-2,-8.605616E-3,-0E0,-8.427229E-3,-2.0680223E-2,-1.1891413E-2,9.395799E-3,-0E0,-3.695017E-3,-1.3362307E-2],"split_indices":[0,8,3,5,3,11,16,8,3,11,8,0,0,13,1,5,3,11,8,4,0,3,5,1,4,3,0,0,3,1,3,5,0,11,0,3,5,8,0,3,1,0,0,8,0,8,0,0,1,0,0,5,0,4,5,5,0,4,1,1,1,5,4,0,8,0,1,8,4,5,0,0,0,0,0,0,16,13,0,4,5,3,0,1,1,8,5,3,5,13,18,1,0,8,5,3,8,0,0,0,8,1,0,3,0,1,0,8,0,0,1,1,0,5,0,5,0,1,0,0,0,1,0,0,0,1,8,0,0,5,5,13,16,0,0,0,5,8,0,0,0,0,5,5,0,0,0,0,0,0,0,0,0,0,0,0,0,0,0,0,0,0,0,0,0,0,0,0,0,0,0,0,0,0,0,0,0,0,0,0,0,0,0,0,0],"split_type":[0,0,0,0,0,0,0,0,0,0,0,0,0,0,0,0,0,0,0,0,0,0,0,0,0,0,0,0,0,0,0,0,0,0,0,0,0,0,0,0,0,0,0,0,0,0,0,0,0,0,0,0,0,0,0,0,0,0,0,0,0,0,0,0,0,0,0,0,0,0,0,0,0,0,0,0,0,0,0,0,0,0,0,0,0,0,0,0,0,0,0,0,0,0,0,0,0,0,0,0,0,0,0,0,0,0,0,0,0,0,0,0,0,0,0,0,0,0,0,0,0,0,0,0,0,0,0,0,0,0,0,0,0,0,0,0,0,0,0,0,0,0,0,0,0,0,0,0,0,0,0,0,0,0,0,0,0,0,0,0,0,0,0,0,0,0,0,0,0,0,0,0,0,0,0,0,0,0,0,0,0,0,0,0,0],"sum_hessian":[8.229729E3,6.98152E3,1.2482081E3,4.3676753E3,2.6138452E3,5.554713E2,6.9273676E2,2.837929E3,1.5297461E3,1.3718812E3,1.2419639E3,5.3501733E2,2.0453972E1,5.8361774E2,1.0911898E2,2.1842983E3,6.536308E2,6.4020593E2,8.8954016E2,1.3205686E3,5.131264E1,8.644988E2,3.7746512E2,4.649015E2,1.18716286E2,7.6434525E1,3.2684456E1,1.4058998E3,7.783985E2,7.340488E1,5.8022595E2,6.0407404E2,3.6131863E1,8.632436E2,2.629656E1,5.96803E2,7.237656E2,3.6839514E2,4.9610364E2,9.44575E1,2.8300763E2,1.1762728E2,3.472742E2,9.625112E1,2.246516E1,5.490552E1,2.1529005E1,1.9751929E2,5.808792E2,3.2084232E1,4.132065E1,2.5121927E2,3.2900668E2,4.5305975E2,1.5101428E2,8.0989294E2,5.3350643E1,2.3502336E2,3.617796E2,4.94311E2,2.2945462E2,2.137188E2,1.5467636E2,1.735691E2,3.2253452E2,2.9622147E1,6.483534E1,1.2506371E2,1.5794391E2,7.042667E1,2.5824457E1,3.4425762E1,2.047976E1,5.586532E2,2.2226048E1,7.92019E1,1.7201738E2,4.2359976E2,2.9459991E1,7.643153E1,7.458275E1,7.84341E2,2.5551933E1,1.2626983E2,1.0875353E2,5.4476376E1,3.0730325E2,6.2488327E1,4.318227E2,7.777343E1,1.5168118E2,1.9043413E2,2.3284666E1,4.573728E1,1.0893907E2,1.9906258E2,1.2347195E2,4.4043182E1,2.0792164E1,3.6383465E1,8.868025E1,1.1458031E2,4.33636E1,4.6411636E1,2.4015032E1,1.4055429E2,3.1463078E1,3.2945416E2,9.414562E1,2.9050982E1,4.738055E1,5.0522156E1,2.406059E1,7.421548E2,4.2186253E1,8.755461E1,3.8715218E1,6.1646584E1,4.7106945E1,2.997606E1,2.4500313E1,2.7437265E2,3.293058E1,2.6472097E1,3.6016228E1,7.9844086E1,3.5197858E2,4.9632576E1,2.8140858E1,9.226624E1,5.941494E1,7.955683E1,1.108773E2,2.0699062E1,2.5038218E1,3.316621E1,7.5772865E1,1.3915744E2,5.9905132E1,3.3881233E1,8.959071E1,4.0854744E1,4.7825504E1,7.252136E1,4.2058945E1,2.5634079E1,2.0777557E1,2.1235731E1,1.19318565E2,2.4962585E2,7.98283E1,2.4652407E1,2.2728144E1,2.6779007E1,2.3743147E1,4.527014E2,2.894534E2,2.0605768E1,2.1580486E1,2.761644E1,5.993817E1,3.7984173E1,2.366241E1,6.7559326E1,2.0681334E2,2.337542E1,5.6468666E1,2.2052533E2,1.3145326E2,4.4279568E1,4.798667E1,2.5007584E1,3.4407356E1,5.7133595E1,2.2423237E1,8.959877E1,2.1278526E1,3.2741627E1,4.303124E1,7.4934044E1,6.42234E1,2.5081196E1,2.274431E1,3.7759644E1,3.476172E1],"tree_param":{"num_deleted":"0","num_feature":"19","num_nodes":"185","size_leaf_vector":"1"}},{"base_weights":[-1.5261424E-1,-4.9216297E-1,2.1774719E0,-8.640198E-1,1.7032242E0,2.3112454E0,-7.4431014E-1,-3.328533E-1,-9.4667786E-1,2.3881285E0,1.1341442E0,2.4197183E0,1.4164869E0,-1.0349827E-2,-2.8540406E-2,-4.9005783E-1,5.945174E-2,-1.014992E0,-6.9164115E-1,2.4750466E0,2.0456474E-2,1.4187293E0,-4.83756E-1,7.576869E-2,2.2133389E0,1.0698751E0,5.186907E-2,2.1975523E-2,-5.558833E-1,-1.0335945E0,-5.847449E-1,-5.224784E-1,-8.9359564E-1,7.429928E-2,5.84071E-2,1.7923383E0,-1.621676E-1,-4.4558913E-4,-6.1965144E-1,1.7117999E0,6.624761E-2,3.79492E-2,1.619898E-2,-8.252581E-1,-4.2403427E-1,-9.9552023E-1,-3.4658484E-2,-4.929267E-1,-2.6468793E-2,-6.07512E-1,2.3006533E-1,-7.7851385E-1,-3.0101402E-2,2.1243186E0,2.1449229E-1,1.3068923E-2,-1.4680118E-2,-7.618536E-1,-7.5631817E-3,5.4411195E-2,2.5216658E-2,-7.2055515E-3,-8.7267303E-1,-3.6761597E-1,-3.204974E-2,-3.0748617E-2,-9.0483207E-1,-1.970731E-2,-3.6540234E-1,-6.430237E-1,1.2320883E-3,2.2803895E-2,-2.8442957E-3,-2.3431895E-2,-4.7557664E-1,3.4766845E-2,6.2142603E-2,6.3865197E-1,-1.46632325E-2,-1.1974605E-2,-2.7977787E-2,-2.759399E-2,-5.716436E-1,-4.5229533E-1,3.774287E-2,-7.0694274E-1,-9.7091156E-1,6.3515417E-3,-5.644651E-1,-2.9957741E-1,-7.049495E-1,-2.0867951E-2,-3.5081557E-3,3.5536237E-2,-0E0,-6.808175E-3,-2.186658E-2,-1.0743445E-2,-2.1113638E-2,-5.2560824E-3,9.683276E-3,-2.211574E-2,3.4226088E-3,-2.5708413E-2,-3.0609312E-2,-1.936948E-2,-7.260122E-3,-0E0,-1.1660403E-2,-2.083293E-2,-8.289556E-3],"categories":[],"categories_nodes":[],"categories_segments":[],"categories_sizes":[],"default_left":[0,0,0,0,0,0,0,0,0,0,0,0,0,0,0,0,0,0,0,0,0,0,0,0,0,0,0,0,0,0,0,0,0,0,0,0,0,0,0,0,0,0,0,0,0,0,0,0,0,0,0,0,0,0,0,0,0,0,0,0,0,0,0,0,0,0,0,0,0,0,0,0,0,0,0,0,0,0,0,0,0,0,0,0,0,0,0,0,0,0,0,0,0,0,0,0,0,0,0,0,0,0,0,0,0,0,0,0,0,0,0],"id":6,"left_children":[1,3,5,7,9,11,13,15,17,19,21,23,25,-1,-1,27,-1,29,31,33,-1,35,37,-1,39,41,-1,-1,43,45,47,49,51,-1,-1,53,55,-1,57,59,-1,-1,-1,61,63,65,-1,67,-1,69,71,73,-1,75,77,-1,-1,79,-1,-1,-1,-1,81,83,-1,-1,85,-1,87,89,-1,-1,-1,-1,91,-1,-1,93,-1,-1,-1,-1,95,97,99,101,103,-1,105,107,109,-1,-1,-1,-1,-1,-1,-1,-1,-1,-1,-1,-1,-1,-1,-1,-1,-1,-1,-1,-1],"loss_changes":[6.482197E3,5.841631E3,4.128955E2,2.666631E2,3.9412622E2,8.492676E1,2.4199276E0,3.1512994E2,8.8898926E1,6.072461E1,2.6563202E2,2.291748E1,8.3454895E0,0E0,0E0,6.547571E1,0E0,3.0365234E1,3.6096924E1,6.157959E0,0E0,2.8989838E2,4.903576E0,0E0,1.1166016E1,5.2253876E0,0E0,0E0,2.4408905E1,2.1965332E1,3.2023087E0,4.051857E1,5.566925E0,0E0,0E0,2.0342224E2,2.1205034E1,0E0,1.8707733E0,7.802643E0,0E0,0E0,0E0,4.9317017E0,1.7509445E1,1.9423096E1,0E0,2.1315079E0,0E0,1.3588837E1,1.276067E1,1.5922241E0,0E0,4.3916016E0,2.3036154E1,0E0,0E0,9.4519234E-1,0E0,0E0,0E0,0E0,3.260086E0,1.6686577E1,0E0,0E0,1.712854E1,0E0,1.2131783E1,9.8954315E0,0E0,0E0,0E0,0E0,2.9704351E0,0E0,0E0,1.8206665E1,0E0,0E0,0E0,0E0,2.4334736E0,6.93486E0,5.763139E0,2.271579E1,4.1243896E0,0E0,1.3465576E0,2.5687642E0,2.8165894E0,0E0,0E0,0E0,0E0,0E0,0E0,0E0,0E0,0E0,0E0,0E0,0E0,0E0,0E0,0E0,0E0,0E0,0E0,0E0,0E0],"parents":[2147483647,0,0,1,1,2,2,3,3,4,4,5,5,6,6,7,7,8,8,9,9,10,10,11,11,12,12,15,15,17,17,18,18,19,19,21,21,22,22,24,24,25,25,28,28,29,29,30,30,31,31,32,32,35,35,36,36,38,38,39,39,43,43,44,44,45,45,47,47,49,49,50,50,51,51,53,53,54,54,57,57,62,62,63,63,66,66,68,68,69,69,74,74,77,77,82,82,83,83,84,84,85,85,86,86,88,88,89,89,90,90],"right_children":[2,4,6,8,10,12,14,16,18,20,22,24,26,-1,-1,28,-1,30,32,34,-1,36,38,-1,40,42,-1,-1,44,46,48,50,52,-1,-1,54,56,-1,58,60,-1,-1,-1,62,64,66,-1,68,-1,70,72,74,-1,76,78,-1,-1,80,-1,-1,-1,-1,82,84,-1,-1,86,-1,88,90,-1,-1,-1,-1,92,-1,-1,94,-1,-1,-1,-1,96,98,100,102,104,-1,106,108,110,-1,-1,-1,-1,-1,-1,-1,-1,-1,-1,-1,-1,-1,-1,-1,-1,-1,-1,-1,-1],"split_conditions":[1.5362775E0,3E0,1E0,-6.838647E-1,-4.2937258E-1,-3.6442953E-1,8.628512E-1,1E0,2E0,8.6456835E-1,1E0,-8.820374E-1,2E0,-1.0349827E-2,-2.8540406E-2,-1.0562342E0,5.945174E-2,1.0229089E0,-2.1674873E-2,-1.0474588E-1,2.0456474E-2,1E0,-4.1999227E-1,7.576869E-2,1E0,3.239348E-1,5.186907E-2,2.1975523E-2,1E0,1E0,1E0,1E0,5.7905674E-1,7.429928E-2,5.84071E-2,1E0,-3.5847324E-1,-4.4558913E-4,1.0426385E0,5.7503724E-1,6.624761E-2,3.79492E-2,1.619898E-2,-6.598677E-1,1E0,1E0,-3.4658484E-2,-4.883113E-1,-2.6468793E-2,1.5794472E0,-5.035325E-1,1E0,-3.0101402E-2,-1.1573135E0,3.3506396E-1,1.3068923E-2,-1.4680118E-2,8.052914E-3,-7.5631817E-3,5.4411195E-2,2.5216658E-2,-7.2055515E-3,1.0229089E0,1E0,-3.204974E-2,-3.0748617E-2,-2.9838166E-1,-1.970731E-2,-3.7238476E-1,-5.7120854E-1,1.2320883E-3,2.2803895E-2,-2.8442957E-3,-2.3431895E-2,2.4976002E-1,3.4766845E-2,6.2142603E-2,-1.7092597E-1,-1.46632325E-2,-1.1974605E-2,-2.7977787E-2,-2.759399E-2,7.178693E-2,1E0,-7.8038293E-1,1E0,3.7690416E-1,6.3515417E-3,2.9816346E-2,-3.084982E-1,1.1221586E0,-2.0867951E-2,-3.5081557E-3,3.5536237E-2,-0E0,-6.808175E-3,-2.186658E-2,-1.0743445E-2,-2.1113638E-2,-5.2560824E-3,9.683276E-3,-2.211574E-2,3.4226088E-3,-2.5708413E-2,-3.0609312E-2,-1.936948E-2,-7.260122E-3,-0E0,-1.1660403E-2,-2.083293E-2,-8.289556E-3],"split_indices":[7,0,11,9,3,9,4,14,0,9,17,9,0,0,0,9,0,7,9,9,0,16,9,0,0,3,0,0,0,17,17,14,9,0,0,14,9,0,4,3,0,0,0,7,11,0,0,9,0,3,4,14,0,7,9,0,0,9,0,0,0,0,7,16,0,0,9,0,9,9,0,0,0,0,9,0,0,4,0,0,0,0,4,17,9,14,9,0,9,7,7,0,0,0,0,0,0,0,0,0,0,0,0,0,0,0,0,0,0,0,0],"split_type":[0,0,0,0,0,0,0,0,0,0,0,0,0,0,0,0,0,0,0,0,0,0,0,0,0,0,0,0,0,0,0,0,0,0,0,0,0,0,0,0,0,0,0,0,0,0,0,0,0,0,0,0,0,0,0,0,0,0,0,0,0,0,0,0,0,0,0,0,0,0,0,0,0,0,0,0,0,0,0,0,0,0,0,0,0,0,0,0,0,0,0,0,0,0,0,0,0,0,0,0,0,0,0,0,0,0,0,0,0,0,0],"sum_hessian":[8.1894067E3,7.1498154E3,1.0395914E3,6.115805E3,1.0340105E3,9.9486646E2,4.472498E1,8.2671814E2,5.289087E3,4.650034E2,5.6900714E2,8.82695E2,1.121714E2,2.1606636E1,2.3118345E1,7.782684E2,4.844975E1,4.163095E3,1.1259915E3,4.4041086E2,2.459252E1,4.846365E2,8.437063E1,4.0382663E2,4.788684E2,6.583811E1,4.633329E1,3.6712616E1,7.415558E2,3.9852253E3,1.7787001E2,6.1997723E2,5.0601428E2,3.332463E2,1.0716455E2,3.922148E2,9.242166E1,2.1135466E1,6.323516E1,8.941805E1,3.8945035E2,3.98037E1,2.6034416E1,2.37182E2,5.0437375E2,3.298699E3,6.865265E2,1.4688477E2,3.0985239E1,5.58571E2,6.1406223E1,3.0464117E2,2.013731E2,3.2285605E2,6.935877E1,3.2207302E1,6.0214363E1,4.1309395E1,2.1925766E1,6.9360115E1,2.0057938E1,2.0783865E1,2.1639815E2,4.7120486E2,3.3168877E1,1.7443799E3,1.554319E3,5.086514E1,9.601963E1,5.3105023E2,2.7520735E1,2.2359062E1,3.904716E1,2.6255374E2,4.208744E1,2.0057247E1,3.027988E2,4.4797993E1,2.4560778E1,2.0351034E1,2.0958363E1,1.5948041E2,5.691773E1,3.9145938E2,7.974548E1,3.9971054E2,1.1546084E3,2.3044682E1,7.2974945E1,8.558734E1,4.4546292E2,2.1451187E1,2.0636255E1,2.1883224E1,2.291477E1,2.4569017E1,3.2348713E1,3.1537698E2,7.6082405E1,4.4670288E1,3.5075195E1,3.714171E2,2.8293432E1,6.846475E2,4.6996094E2,4.9297276E1,2.3677671E1,2.495309E1,6.063425E1,4.182261E2,2.7236795E1],"tree_param":{"num_deleted":"0","num_feature":"19","num_nodes":"111","size_leaf_vector":"1"}},{"base_weights":[-1.4894222E-1,-4.772712E-1,2.1049857E0,-8.543849E-1,1.648113E0,-2.7451617E-1,7.985902E-2,-9.369191E-1,-5.6301415E-1,2.274959E0,1.1282847E0,-6.170438E-1,2.8293874E-2,-1.075613E0,-7.806741E-1,-6.348472E-1,-1.6086E-2,8.068487E-1,7.595554E-2,6.718616E-1,7.618168E-2,-7.6607287E-1,-1.0942927E-3,-1.0921631E0,-7.513741E-1,-8.4506947E-1,-5.139364E-2,-6.821411E-1,-1.096963E-1,4.4875887E-1,-5.7329816E-1,3.1041581E-2,4.5886114E-1,3.469398E-1,9.1908795E-1,-2.3744935E-2,-1.0289002E-2,-3.2553054E-2,-2.9242562E-2,-8.172986E-1,-9.270528E-3,-8.83825E-1,-4.6725994E-1,2.2895531E-1,-1.9885449E-2,-5.8061236E-1,-8.097413E-1,1.9473547E-1,-1.0497056E-2,4.445766E-3,4.531237E-2,-2.2524923E-2,-6.911179E-4,2.1254852E-2,1.5122455E-3,4.6489197E-1,-5.850025E-3,1.2170304E0,6.633636E-1,-2.736559E-2,-5.484405E-1,-9.768973E-1,-8.1101936E-1,-5.744076E-1,2.8263878E-3,-1.5395181E-1,5.832489E-2,-6.914995E-1,-4.7844112E-2,-9.0200096E-1,-5.773513E-1,1.1100152E-2,-1.7930835E-4,1.8442068E-2,-1.3364518E-2,5.531996E-1,-0E0,2.0972408E-2,4.1422807E-2,4.5875672E-1,3.924872E-2,-5.8812047E-3,-2.2579998E-2,-6.6852224E-1,-2.8657695E-2,-9.1466635E-1,-7.1017444E-1,-8.274185E-3,-6.494945E-1,3.5212383E-1,-5.2156615E-1,-8.282279E-1,-5.915674E-1,8.739005E-3,-2.6454857E-1,-2.7215324E-2,-1.8233115E-2,-5.230194E-3,-6.882806E-1,5.7238415E-3,6.0621977E-1,1.6584435E-1,2.1976545E-2,-2.343039E-2,-9.262578E-3,-2.1031272E-2,-2.8700477E-2,1.727519E-2,-2.2407888E-2,-8.739394E-3,-2.0463582E-2,-5.4701907E-3,2.6657827E-2,-6.100823E-4,-2.0806734E-2,-1.8323299E-2,-2.6900591E-2,-1.3634329E-2,-2.1754613E-2,-1.1449901E-2,3.1119108E-4,-1.4988238E-2,-2.6132943E-2,2.4156947E-2,1.3997981E-2,-7.103953E-3,1.4406734E-2],"categories":[],"categories_nodes":[],"categories_segments":[],"categories_sizes":[],"default_left":[0,0,0,0,0,0,0,0,0,0,0,0,0,0,0,0,0,0,0,0,0,0,0,0,0,0,0,0,0,0,0,0,0,0,0,0,0,0,0,0,0,0,0,0,0,0,0,0,0,0,0,0,0,0,0,0,0,0,0,0,0,0,0,0,0,0,0,0,0,0,0,0,0,0,0,0,0,0,0,0,0,0,0,0,0,0,0,0,0,0,0,0,0,0,0,0,0,0,0,0,0,0,0,0,0,0,0,0,0,0,0,0,0,0,0,0,0,0,0,0,0,0,0,0,0,0,0],"id":7,"left_children":[1,3,5,7,9,11,-1,13,15,17,19,21,-1,23,25,27,29,31,-1,33,-1,35,-1,37,39,41,43,45,47,49,51,-1,53,55,57,-1,-1,-1,-1,59,-1,61,63,65,-1,67,69,71,-1,73,-1,-1,-1,-1,-1,75,-1,77,79,-1,81,83,85,87,-1,89,-1,91,93,95,97,-1,-1,-1,-1,99,-1,-1,-1,101,-1,-1,-1,103,-1,105,107,-1,109,111,113,115,117,-1,119,-1,-1,-1,121,-1,123,125,-1,-1,-1,-1,-1,-1,-1,-1,-1,-1,-1,-1,-1,-1,-1,-1,-1,-1,-1,-1,-1,-1,-1,-1,-1],"loss_changes":[6.02534E3,5.699838E3,1.692666E3,1.4254492E2,3.3979956E2,1.02113075E2,0E0,9.80791E1,5.20719E1,2.6019092E2,4.065526E2,1.5193291E1,0E0,9.6015625E0,1.03406494E2,2.848999E1,4.2111225E1,7.312935E0,0E0,3.4953827E1,0E0,1.9498367E0,0E0,2.6704102E0,1.9817276E0,2.761377E1,3.4018394E1,1.161026E1,8.344285E0,4.2616432E1,7.955099E0,0E0,5.085553E0,1.3743568E1,1.5934937E1,0E0,0E0,0E0,0E0,1.4317627E0,0E0,8.919434E0,1.2542015E1,9.187085E1,0E0,3.5646133E1,7.439972E0,2.1787622E0,0E0,2.0776632E1,0E0,0E0,0E0,0E0,0E0,7.382248E0,0E0,8.170853E0,1.7882614E1,0E0,2.4239607E0,2.8013916E0,7.9419556E0,2.257145E0,0E0,2.0745064E1,0E0,4.4373474E0,8.5954E0,1.3235474E0,5.1502533E0,0E0,0E0,0E0,0E0,1.6554413E0,0E0,0E0,0E0,9.478886E0,0E0,0E0,0E0,1.8307781E0,0E0,4.640991E0,5.395114E1,0E0,1.4072647E0,1.5578204E1,5.9183445E0,1.3686676E0,3.9133606E0,0E0,3.0352192E0,0E0,0E0,0E0,1.5362282E0,0E0,1.1535416E0,9.637807E0,0E0,0E0,0E0,0E0,0E0,0E0,0E0,0E0,0E0,0E0,0E0,0E0,0E0,0E0,0E0,0E0,0E0,0E0,0E0,0E0,0E0,0E0,0E0,0E0,0E0],"parents":[2147483647,0,0,1,1,2,2,3,3,4,4,5,5,7,7,8,8,9,9,10,10,11,11,13,13,14,14,15,15,16,16,17,17,19,19,21,21,23,23,24,24,25,25,26,26,27,27,28,28,29,29,30,30,32,32,33,33,34,34,39,39,41,41,42,42,43,43,45,45,46,46,47,47,49,49,55,55,57,57,58,58,60,60,61,61,62,62,63,63,65,65,67,67,68,68,69,69,70,70,75,75,79,79,83,83,85,85,86,86,88,88,89,89,90,90,91,91,92,92,94,94,98,98,100,100,101,101],"right_children":[2,4,6,8,10,12,-1,14,16,18,20,22,-1,24,26,28,30,32,-1,34,-1,36,-1,38,40,42,44,46,48,50,52,-1,54,56,58,-1,-1,-1,-1,60,-1,62,64,66,-1,68,70,72,-1,74,-1,-1,-1,-1,-1,76,-1,78,80,-1,82,84,86,88,-1,90,-1,92,94,96,98,-1,-1,-1,-1,100,-1,-1,-1,102,-1,-1,-1,104,-1,106,108,-1,110,112,114,116,118,-1,120,-1,-1,-1,122,-1,124,126,-1,-1,-1,-1,-1,-1,-1,-1,-1,-1,-1,-1,-1,-1,-1,-1,-1,-1,-1,-1,-1,-1,-1,-1,-1],"split_conditions":[1.6499939E0,3E0,1E0,2E0,-4.2937258E-1,3E0,7.985902E-2,1E0,1E0,1E0,1E0,2E0,2.8293874E-2,1.0229089E0,1E0,1.0229089E0,-7.2042935E-2,-9.185143E-2,7.595554E-2,1E0,7.618168E-2,1E0,-1.0942927E-3,1E0,1E0,1.0229089E0,2.8753173E-1,-2.5183028E-1,-4.2289054E-1,-2.2837502E-1,4.6049365E-1,3.1041581E-2,1E0,1E0,-2.5183028E-1,-2.3744935E-2,-1.0289002E-2,-3.2553054E-2,-2.9242562E-2,7.366813E-2,-9.270528E-3,1E0,9.012659E-1,2.0600714E-1,-1.9885449E-2,-3.2573972E-2,4.6049365E-1,1.2901198E0,-1.0497056E-2,-7.911923E-1,4.531237E-2,-2.2524923E-2,-6.911179E-4,2.1254852E-2,1.5122455E-3,4E0,-5.850025E-3,-7.8649026E-1,1.1221586E0,-2.736559E-2,5.702268E-1,-1.1148095E0,-3.3232972E-1,-7.539297E-1,2.8263878E-3,-4.2937258E-1,5.832489E-2,-8.713191E-1,-7.192773E-1,1E0,6.675349E-1,1.1100152E-2,-1.7930835E-4,1.8442068E-2,-1.3364518E-2,-8.92571E-1,-0E0,2.0972408E-2,4.1422807E-2,3.239348E-1,3.924872E-2,-5.8812047E-3,-2.2579998E-2,-1.0918741E0,-2.8657695E-2,-1.0608733E0,-8.676019E-1,-8.274185E-3,-7.2042935E-2,-6.7490774E-1,-2.5737098E-1,-1.150767E0,-6.473624E-1,8.739005E-3,2.3918769E-1,-2.7215324E-2,-1.8233115E-2,-5.230194E-3,8.853246E-1,5.7238415E-3,7.2832346E-2,1.8355244E-1,2.1976545E-2,-2.343039E-2,-9.262578E-3,-2.1031272E-2,-2.8700477E-2,1.727519E-2,-2.2407888E-2,-8.739394E-3,-2.0463582E-2,-5.4701907E-3,2.6657827E-2,-6.100823E-4,-2.0806734E-2,-1.8323299E-2,-2.6900591E-2,-1.3634329E-2,-2.1754613E-2,-1.1449901E-2,3.1119108E-4,-1.4988238E-2,-2.6132943E-2,2.4156947E-2,1.3997981E-2,-7.103953E-3,1.4406734E-2],"split_indices":[6,0,12,0,3,0,0,12,14,12,15,0,0,7,14,7,4,1,0,12,0,15,0,0,15,7,4,4,1,7,7,0,18,14,4,0,0,0,0,1,0,0,1,7,0,7,7,7,0,4,0,0,0,0,0,0,0,7,7,0,1,4,7,1,0,3,0,7,4,15,6,0,0,0,0,7,0,0,0,3,0,0,0,7,0,4,4,0,4,7,1,4,4,0,1,0,0,0,4,0,3,7,0,0,0,0,0,0,0,0,0,0,0,0,0,0,0,0,0,0,0,0,0,0,0,0,0],"split_type":[0,0,0,0,0,0,0,0,0,0,0,0,0,0,0,0,0,0,0,0,0,0,0,0,0,0,0,0,0,0,0,0,0,0,0,0,0,0,0,0,0,0,0,0,0,0,0,0,0,0,0,0,0,0,0,0,0,0,0,0,0,0,0,0,0,0,0,0,0,0,0,0,0,0,0,0,0,0,0,0,0,0,0,0,0,0,0,0,0,0,0,0,0,0,0,0,0,0,0,0,0,0,0,0,0,0,0,0,0,0,0,0,0,0,0,0,0,0,0,0,0,0,0,0,0,0,0],"sum_hessian":[8.1383906E3,7.105634E3,1.0327571E3,6.036451E3,1.0691825E3,2.3099248E2,8.0176465E2,4.6973184E3,1.3391328E3,4.8018683E2,5.8899567E2,1.8327171E2,4.7720757E1,2.4777214E3,2.219597E3,1.1818142E3,1.5731854E2,1.0060617E2,3.7958066E2,4.5705777E2,1.3193788E2,1.4383809E2,3.9433636E1,2.3492068E3,1.2851482E2,2.0379767E3,1.8162029E2,1.0818782E3,9.993603E1,8.510809E1,7.221044E1,5.160543E1,4.900074E1,2.0163908E2,2.5541867E2,1.2020799E2,2.3630093E1,1.398515E3,9.5069165E2,1.0753691E2,2.0977907E1,1.8431912E3,1.9478552E2,1.26572975E2,5.504731E1,6.140382E2,4.6784E2,4.4356445E1,5.557958E1,6.349234E1,2.1615757E1,4.999654E1,2.2213903E1,2.6304401E1,2.2696339E1,1.6781488E2,3.382421E1,1.1208857E2,1.4333011E2,6.453629E1,4.3000614E1,7.9019434E2,1.0529968E3,1.6514249E2,2.9643045E1,1.05858055E2,2.0714922E1,5.0620343E2,1.07834785E2,3.2702484E2,1.4081514E2,2.3852135E1,2.050431E1,2.7398958E1,3.609338E1,1.4192775E2,2.5887127E1,4.0701412E1,7.138715E1,1.15310524E2,2.8019587E1,2.1178068E1,2.1822546E1,6.593305E1,7.242613E2,5.0509784E2,5.47899E2,3.9446682E1,1.256958E2,4.3512043E1,6.2346012E1,2.0236345E2,3.0383997E2,3.8985012E1,6.884978E1,2.6774387E2,5.928099E1,3.4154247E1,1.0666089E2,2.2333427E1,1.1959432E2,6.2670544E1,5.2639977E1,4.172818E1,2.4204872E1,1.7714354E2,3.279543E2,2.7170177E1,5.207288E2,2.4583893E1,1.0111191E2,2.245642E1,2.1055622E1,2.02546E1,4.209141E1,8.462923E1,1.1773423E2,1.8931944E2,1.14520515E2,4.7688564E1,2.1161215E1,6.863485E1,3.8026047E1,3.1868893E1,8.7725426E1,2.7186749E1,3.5483795E1],"tree_param":{"num_deleted":"0","num_feature":"19","num_nodes":"127","size_leaf_vector":"1"}},{"base_weights":[-1.4425443E-1,-5.0568324E-1,1.6988186E0,8.7191266E-1,-7.7164125E-1,8.152215E-1,2.0839539E0,-6.977533E-1,1.2224983E0,-4.0605193E-1,-9.583784E-1,3.6295518E-1,7.231764E-2,2.3073475E0,1.6344597E0,-4.7654542E-1,-2.8789103E-2,9.638025E-1,2.3521261E0,-5.727951E-1,8.0785626E-1,-1.047027E0,-8.0755067E-1,5.7317626E-1,-2.7220113E-2,6.880145E-2,5.7494424E-2,1.4316397E0,7.183855E-2,-2.3163665E-2,-9.40884E-2,1.7070426E0,4.199974E-2,7.41396E-2,1.7332981E0,-2.2824107E-1,-8.3102876E-1,-5.999572E-1,1.6778655E0,-3.2194376E-2,-8.9762694E-1,-6.7496663E-1,-1.0009049E0,3.4333758E-2,1.8215895E-1,1.5805339E0,7.269487E-1,3.4400565E-3,-1.459428E-2,1.0149672E0,7.255383E-2,-2.66136E-1,6.966304E-1,1.568268E-2,6.798719E-2,-5.969138E-1,1.2700752E0,-9.664446E-1,-6.111529E-1,-2.6240705E-2,-3.5261142E-1,2.2200046E0,5.7893723E-1,-7.3622084E-1,-2.8478555E-2,-7.3905414E-1,2.1047445E-2,-9.93975E-3,-2.9374462E-2,4.2340896E-1,-2.023627E-2,5.0308533E-2,3.205666E-2,2.6384864E-2,1.01895295E-2,1.7981125E0,-2.1522906E-1,-5.7577443E-1,-4.1715093E-2,1.620831E0,-1.655582E-1,-1.384437E-1,-7.8033906E-1,-1.6620195E-2,2.0109806E0,-3.084962E-2,-2.4879668E-2,-5.101636E-1,-8.8199276E-1,-7.940277E-4,-2.0752816E-2,7.2767444E-2,4.897964E-2,-9.061671E-3,4.0137153E-2,-8.737304E-1,3.0096035E-2,-8.106154E-1,-4.3431556E-1,6.3297343E-1,-1.1720134E-2,1.0384096E0,6.861861E-2,-5.7274085E-1,1.652718E-2,-5.50062E-3,-1.9095507E-2,-1.632206E-2,1.2646163E-1,5.9505694E-2,3.0296529E-2,-1.330668E-2,4.7537647E-3,-4.198811E-1,2.694687E-2,-8.713089E-1,-4.6161923E-1,6.818901E-2,2.5888547E-2,-7.2952366E-1,-3.0019385E-1,-3.228352E-2,-8.673928E-3,-2.654147E-2,-3.7473245E-3,-6.117024E-1,-8.5085946E-1,-5.197735E-1,-4.7297083E-4,-3.615072E-3,8.3781725E-1,4.7370423E-2,5.491792E-3,-2.3446107E-2,-3.2395974E-4,7.761259E-3,-9.323524E-3,-1.8891986E-2,3.1104817E-3,-2.6564736E-2,-1.2287704E-2,-8.783071E-3,-1.7379778E-2,-1.1902966E-2,-2.3391113E-2,-5.1857103E-3,-1.858439E-2,-2.6912514E-2,2.0132197E-2,-2.7818434E-2,-1.9698061E-2,-1.2015296E-3,-1.7088E-2,3.144741E-2,-0E0],"categories":[],"categories_nodes":[],"categories_segments":[],"categories_sizes":[],"default_left":[0,0,0,0,0,0,0,0,0,0,0,0,0,0,0,0,0,0,0,0,0,0,0,0,0,0,0,0,0,0,0,0,0,0,0,0,0,0,0,0,0,0,0,0,0,0,0,0,0,0,0,0,0,0,0,0,0,0,0,0,0,0,0,0,0,0,0,0,0,0,0,0,0,0,0,0,0,0,0,0,0,0,0,0,0,0,0,0,0,0,0,0,0,0,0,0,0,0,0,0,0,0,0,0,0,0,0,0,0,0,0,0,0,0,0,0,0,0,0,0,0,0,0,0,0,0,0,0,0,0,0,0,0,0,0,0,0,0,0,0,0,0,0,0,0,0,0,0,0,0,0,0,0,0,0],"id":8,"left_children":[1,3,5,7,9,11,13,15,17,19,21,23,-1,25,27,29,-1,31,33,35,37,39,41,43,-1,-1,-1,45,-1,-1,47,49,51,-1,53,55,57,59,61,-1,63,65,67,-1,69,71,73,-1,-1,75,-1,77,79,-1,-1,81,83,85,87,-1,89,91,93,95,-1,97,-1,-1,-1,99,-1,-1,-1,-1,-1,101,103,105,107,109,111,113,115,-1,117,-1,-1,119,121,-1,-1,-1,-1,-1,-1,123,-1,125,127,129,-1,131,-1,133,-1,-1,-1,-1,135,-1,-1,-1,-1,137,-1,139,141,-1,-1,143,145,-1,-1,-1,-1,147,149,151,-1,-1,153,-1,-1,-1,-1,-1,-1,-1,-1,-1,-1,-1,-1,-1,-1,-1,-1,-1,-1,-1,-1,-1,-1,-1,-1],"loss_changes":[5.400905E3,2.4854502E3,4.4550488E2,6.065775E2,3.858496E2,3.110778E2,7.992676E1,1.1188728E1,2.5401892E2,3.9108893E2,4.64834E1,9.1054474E1,0E0,1.8017578E0,4.3802002E1,1.4708384E1,0E0,5.023822E2,9.475647E0,1.4954163E2,2.8898816E2,2.30896E1,3.28432E1,6.757486E1,0E0,0E0,0E0,2.2687134E1,0E0,0E0,5.999785E0,2.236189E2,6.7726456E1,0E0,3.5470978E1,4.0547885E2,2.590503E1,5.118992E0,8.0745575E1,0E0,9.566895E0,7.763602E1,7.256775E0,0E0,3.868352E1,1.0041077E1,1.7348061E0,0E0,0E0,2.2038824E2,0E0,1.5082439E1,8.786838E1,0E0,0E0,4.8452576E1,2.027111E2,2.3237305E0,7.9484253E0,0E0,6.068127E0,1.2254333E0,4.0281822E1,8.14518E1,0E0,1.5637329E1,0E0,0E0,0E0,2.5708471E1,0E0,0E0,0E0,0E0,0E0,5.407144E1,2.6214828E1,2.1524525E0,1.2636109E1,5.343933E0,6.167384E0,5.300421E1,9.931305E0,0E0,3.4612457E1,0E0,0E0,1.1567543E1,1.1627655E1,0E0,0E0,0E0,0E0,0E0,0E0,1.0748276E1,0E0,2.5795898E0,5.2478466E0,1.891703E1,0E0,3.209362E1,0E0,8.036011E0,0E0,0E0,0E0,0E0,6.9323707E0,0E0,0E0,0E0,0E0,1.8400927E1,0E0,5.842636E0,9.5850945E-1,0E0,0E0,1.7372284E0,5.219205E0,0E0,0E0,0E0,0E0,5.4525463E1,7.2860413E0,4.2266235E0,0E0,0E0,2.0001892E1,0E0,0E0,0E0,0E0,0E0,0E0,0E0,0E0,0E0,0E0,0E0,0E0,0E0,0E0,0E0,0E0,0E0,0E0,0E0,0E0,0E0,0E0,0E0,0E0],"parents":[2147483647,0,0,1,1,2,2,3,3,4,4,5,5,6,6,7,7,8,8,9,9,10,10,11,11,13,13,14,14,15,15,17,17,18,18,19,19,20,20,21,21,22,22,23,23,27,27,30,30,31,31,32,32,34,34,35,35,36,36,37,37,38,38,40,40,41,41,42,42,44,44,45,45,46,46,49,49,51,51,52,52,55,55,56,56,57,57,58,58,60,60,61,61,62,62,63,63,65,65,69,69,75,75,76,76,77,77,78,78,79,79,80,80,81,81,82,82,84,84,87,87,88,88,95,95,97,97,98,98,99,99,101,101,103,103,108,108,113,113,115,115,116,116,119,119,120,120,125,125,126,126,127,127,130,130],"right_children":[2,4,6,8,10,12,14,16,18,20,22,24,-1,26,28,30,-1,32,34,36,38,40,42,44,-1,-1,-1,46,-1,-1,48,50,52,-1,54,56,58,60,62,-1,64,66,68,-1,70,72,74,-1,-1,76,-1,78,80,-1,-1,82,84,86,88,-1,90,92,94,96,-1,98,-1,-1,-1,100,-1,-1,-1,-1,-1,102,104,106,108,110,112,114,116,-1,118,-1,-1,120,122,-1,-1,-1,-1,-1,-1,124,-1,126,128,130,-1,132,-1,134,-1,-1,-1,-1,136,-1,-1,-1,-1,138,-1,140,142,-1,-1,144,146,-1,-1,-1,-1,148,150,152,-1,-1,154,-1,-1,-1,-1,-1,-1,-1,-1,-1,-1,-1,-1,-1,-1,-1,-1,-1,-1,-1,-1,-1,-1,-1,-1],"split_conditions":[3E0,-7.457362E-1,1E0,1E0,-2.9838166E-1,1E0,-3.0369878E-1,1E0,-7.294622E-1,-2.6268664E-1,1.1445901E-1,1E0,7.231764E-2,-5.433236E-1,1E0,9.124713E-3,-2.8789103E-2,-9.0275574E-1,-7.8881323E-1,-5.638936E-1,1E0,1E0,4.1154468E-1,-1.070948E-1,-2.7220113E-2,6.880145E-2,5.7494424E-2,1E0,7.183855E-2,-2.3163665E-2,-7.5539416E-1,-9.161724E-1,-8.5912204E-1,7.41396E-2,-6.7054474E-1,-5.220064E-1,1.5066767E-1,-2.0500557E-2,-3.7238476E-1,-3.2194376E-2,-1.657407E-2,3.338525E-1,2.0054908E-1,3.4333758E-2,1E0,4.1154468E-1,1.6516813E0,3.4400565E-3,-1.459428E-2,-9.9423563E-1,7.255383E-2,-9.10986E-1,-8.217324E-1,1.568268E-2,6.798719E-2,-7.5539416E-1,1E0,1E0,-3.6973384E-1,-2.6240705E-2,-1.070948E-1,-4.5320398E-1,-1.4210297E-1,1.13223255E-1,-2.8478555E-2,9.999254E-1,2.1047445E-2,-9.93975E-3,-2.9374462E-2,4E0,-2.023627E-2,5.0308533E-2,3.205666E-2,2.6384864E-2,1.01895295E-2,-1.0406458E0,-9.887819E-1,-1.0147139E0,-6.88715E-1,-8.649056E-1,-7.8881323E-1,-7.813261E-1,2E0,-1.6620195E-2,-6.0480654E-1,-3.084962E-2,-2.4879668E-2,-5.220064E-1,-3.4048256E-1,-7.940277E-4,-2.0752816E-2,7.2767444E-2,4.897964E-2,-9.061671E-3,4.0137153E-2,-2.929888E-2,3.0096035E-2,-2.368584E-1,1E0,4.8497044E-2,-1.1720134E-2,-1.0835353E0,6.861861E-2,3.8766983E-1,1.652718E-2,-5.50062E-3,-1.9095507E-2,-1.632206E-2,1E0,5.9505694E-2,3.0296529E-2,-1.330668E-2,4.7537647E-3,6.082135E-1,2.694687E-2,-5.7387036E-1,1E0,6.818901E-2,2.5888547E-2,-6.2573427E-1,1E0,-3.228352E-2,-8.673928E-3,-2.654147E-2,-3.7473245E-3,-2.6268664E-1,4.8497044E-2,1.0657593E0,-4.7297083E-4,-3.615072E-3,8.6456835E-1,4.7370423E-2,5.491792E-3,-2.3446107E-2,-3.2395974E-4,7.761259E-3,-9.323524E-3,-1.8891986E-2,3.1104817E-3,-2.6564736E-2,-1.2287704E-2,-8.783071E-3,-1.7379778E-2,-1.1902966E-2,-2.3391113E-2,-5.1857103E-3,-1.858439E-2,-2.6912514E-2,2.0132197E-2,-2.7818434E-2,-1.9698061E-2,-1.2015296E-3,-1.7088E-2,3.144741E-2,-0E0],"split_indices":[0,9,12,12,9,15,9,11,2,2,5,11,0,9,15,5,0,9,9,9,12,12,2,2,0,0,0,16,0,0,2,2,2,0,2,2,5,5,9,0,9,2,9,0,16,2,5,0,0,9,0,2,9,0,0,2,12,12,2,0,2,9,2,2,0,5,0,0,0,0,0,0,0,0,0,2,2,2,5,9,9,2,0,0,9,0,0,2,2,0,0,0,0,0,0,2,0,2,15,2,0,9,0,5,0,0,0,0,15,0,0,0,0,5,0,2,18,0,0,2,15,0,0,0,0,2,2,5,0,0,9,0,0,0,0,0,0,0,0,0,0,0,0,0,0,0,0,0,0,0,0,0,0,0,0],"split_type":[0,0,0,0,0,0,0,0,0,0,0,0,0,0,0,0,0,0,0,0,0,0,0,0,0,0,0,0,0,0,0,0,0,0,0,0,0,0,0,0,0,0,0,0,0,0,0,0,0,0,0,0,0,0,0,0,0,0,0,0,0,0,0,0,0,0,0,0,0,0,0,0,0,0,0,0,0,0,0,0,0,0,0,0,0,0,0,0,0,0,0,0,0,0,0,0,0,0,0,0,0,0,0,0,0,0,0,0,0,0,0,0,0,0,0,0,0,0,0,0,0,0,0,0,0,0,0,0,0,0,0,0,0,0,0,0,0,0,0,0,0,0,0,0,0,0,0,0,0,0,0,0,0,0,0],"sum_hessian":[8.1039146E3,6.7771646E3,1.3267502E3,1.0952133E3,5.681951E3,4.057692E2,9.2098114E2,1.9903204E2,8.9618115E2,1.9253077E3,3.7566436E3,3.237122E2,8.2057E1,6.071654E2,3.1381567E2,1.21216446E2,7.781559E1,7.3350433E2,1.6267683E2,1.694585E3,2.3072287E2,2.3530762E3,1.4035674E3,2.8085602E2,4.2856174E1,4.432667E2,1.6389873E2,2.6083676E2,5.2978912E1,6.2061794E1,5.9154655E1,4.043826E2,3.2912173E2,1.1077903E2,5.18978E1,7.294602E2,9.651247E2,8.7999245E1,1.4272363E2,1.5320139E3,8.2106226E2,8.419333E2,5.6163403E2,1.05087364E2,1.7576866E2,2.1176398E2,4.90728E1,3.8685505E1,2.0469149E1,2.2383328E2,1.8054932E2,2.2378717E2,1.0533456E2,2.0324379E1,3.1573423E1,5.870814E2,1.423788E2,5.8956903E2,3.7555566E2,3.404834E1,5.3950905E1,9.3354034E1,4.936959E1,3.205527E2,5.0050952E2,8.0707385E2,3.4859447E1,2.3800177E1,5.3783386E2,1.4008284E2,3.5685818E1,1.4649182E2,6.5272156E1,2.8157824E1,2.0914974E1,1.3655116E2,8.728212E1,9.0697784E1,1.330894E2,5.0337894E1,5.4996666E1,1.7043106E2,4.1665036E2,4.0490173E1,1.0188863E2,2.585623E2,3.3100674E2,2.8114316E2,9.44125E1,3.154768E1,2.2403223E1,5.008083E1,4.327321E1,2.3817831E1,2.5551758E1,2.9929123E2,2.1261477E1,6.478583E2,1.5921559E2,1.132845E2,2.6798342E1,6.3830933E1,7.272023E1,6.1429245E1,2.5852879E1,2.0876337E1,6.982144E1,3.2072613E1,1.01016785E2,2.3221912E1,2.7115982E1,2.987763E1,2.5119038E1,1.370585E2,3.3372547E1,3.185933E2,9.805705E1,7.3547806E1,2.8340822E1,1.3239467E2,1.4874849E2,6.3509624E1,3.0902878E1,2.7738074E2,2.1910507E1,1.1951411E2,5.283442E2,1.2982893E2,2.938666E1,2.3294321E1,8.999018E1,3.4950947E1,2.8879982E1,4.0756485E1,2.0672758E1,7.882638E1,2.2190403E1,9.503356E1,4.202495E1,2.7800906E2,4.058424E1,5.4306126E1,4.3750927E1,3.432514E1,9.806953E1,1.15677414E2,3.307108E1,9.673754E1,2.2776567E1,2.9251117E2,2.3583298E2,2.0289461E1,1.09539474E2,6.786867E1,2.2121508E1],"tree_param":{"num_deleted":"0","num_feature":"19","num_nodes":"155","size_leaf_vector":"1"}},{"base_weights":[-1.4906631E-1,-4.698612E-1,1.8977726E0,9.8576404E-2,-6.32122E-1,2.0120363E0,-2.3223903E-2,-3.396328E-2,1.7678944E0,-4.895057E-1,-8.537326E-1,2.1399038E0,1.491257E0,3.6971483E-2,-3.0345082E-2,2.1792662E0,2.3302192E-2,-4.0551355E-1,-9.2541033E-1,-8.9637345E-1,-4.0513316E-1,6.585869E-2,5.658425E-2,1.3570074E0,5.5204388E-2,2.7868316E-1,-2.144123E-1,6.9412805E-2,4.1690543E-2,-4.5275703E-1,2.2357346E-1,-6.279395E-1,-1.0578727E0,-7.360731E-1,-9.552191E-1,-3.023063E-1,-2.407553E-2,1.4279026E0,1.9579588E-2,3.8294967E-2,2.1572688E-1,-1.3397722E-1,-6.402149E-1,-2.5503978E-1,-5.5305225E-1,-1.5886404E-2,3.4663066E-1,-4.0085763E-1,-2.0794362E-2,-3.1085344E-2,-1.5942102E-2,-2.2600275E-2,-4.5187142E-1,-9.082589E-1,-3.3173822E-2,-1.36544E-1,-5.5505645E-1,2.3149403E-2,1.515817E0,1.0647315E-1,6.882718E-1,5.2402426E-2,-2.6927152E-1,-9.777939E-3,-2.4089709E-2,-3.3929875E-1,3.078443E-1,-6.6094774E-1,-1.898245E-1,5.139456E-1,-1.0290274E-2,-1.473676E-2,-3.7632522E-3,-2.5181584E-3,-1.6651746E-2,-2.325583E-2,-2.9591164E-2,7.94686E-3,-3.200989E-1,-2.2165565E-2,-2.9226567E-3,5.4067347E-2,3.746321E-2,1.9329812E-1,-8.719275E-2,2.458274E-2,4.890406E-1,-1.9443472E-1,3.9092353E-1,5.950117E-3,-3.4050497E-1,-4.364782E-1,-1.16439424E-1,7.159779E-1,-1.8656795E-1,-5.912862E-1,-8.4672326E-1,-4.6311656E-1,-9.263198E-2,8.2363355E-1,3.1315768E-1,-0E0,-5.21051E-1,-8.430797E-3,7.466824E-3,-8.736503E-3,8.766552E-3,2.0080615E-2,4.7335303E-3,-8.496458E-3,8.670109E-3,-2.476864E-3,1.5059745E-2,-1.3585477E-2,-4.340914E-3,-7.7716764E-3,-1.5932543E-2,-9.548142E-3,4.0509537E-4,2.7761528E-2,4.3016123E-3,-0E0,-8.7168235E-3,-1.6154673E-2,-3.2963958E-2,-2.0011984E-2,-2.6482867E-2,-7.114756E-3,-1.6376307E-2,-0E0,-8.831743E-3,3.180423E-3,3.6342643E-2,3.1466521E-3,1.9692378E-2,-2.2150105E-2,-5.515147E-3],"categories":[],"categories_nodes":[],"categories_segments":[],"categories_sizes":[],"default_left":[0,0,0,0,0,0,0,0,0,0,0,0,0,0,0,0,0,0,0,0,0,0,0,0,0,0,0,0,0,0,0,0,0,0,0,0,0,0,0,0,0,0,0,0,0,0,0,0,0,0,0,0,0,0,0,0,0,0,0,0,0,0,0,0,0,0,0,0,0,0,0,0,0,0,0,0,0,0,0,0,0,0,0,0,0,0,0,0,0,0,0,0,0,0,0,0,0,0,0,0,0,0,0,0,0,0,0,0,0,0,0,0,0,0,0,0,0,0,0,0,0,0,0,0,0,0,0,0,0,0,0,0,0,0,0,0,0],"id":9,"left_children":[1,3,5,7,9,11,-1,13,15,17,19,21,23,25,-1,27,-1,29,31,33,35,-1,-1,37,-1,39,41,-1,-1,43,45,47,49,51,53,55,-1,57,-1,-1,59,61,63,65,67,-1,69,71,-1,-1,-1,-1,73,75,-1,77,79,-1,81,83,85,87,89,-1,-1,91,93,95,97,99,-1,-1,-1,-1,-1,-1,-1,-1,101,-1,-1,-1,-1,103,105,-1,107,109,111,-1,113,115,117,119,121,123,125,127,129,131,133,-1,135,-1,-1,-1,-1,-1,-1,-1,-1,-1,-1,-1,-1,-1,-1,-1,-1,-1,-1,-1,-1,-1,-1,-1,-1,-1,-1,-1,-1,-1,-1,-1,-1,-1,-1],"loss_changes":[5.282931E3,6.4231433E2,3.425122E2,3.437468E2,1.6883105E2,5.861328E1,0E0,1.0544159E2,3.7738464E1,1.1874548E2,3.834131E1,6.8952637E0,3.2846375E0,8.1784294E1,0E0,1.6552429E0,0E0,8.292395E1,1.769336E1,1.4891968E1,6.8271484E0,0E0,0E0,4.008148E0,0E0,4.3697655E1,2.1590506E1,0E0,0E0,5.0125366E1,1.88639E1,2.0801544E0,2.1191711E0,6.086914E0,8.900879E0,5.835099E0,0E0,3.2857666E0,0E0,0E0,3.276953E1,1.4308159E1,4.3346596E0,4.187344E1,6.585913E1,0E0,2.0688671E1,1.0798235E0,0E0,0E0,0E0,0E0,3.642727E0,1.0074951E1,0E0,7.9733396E0,4.9512634E0,0E0,1.1830444E0,9.127569E0,1.821701E0,1.9904497E1,1.1397408E1,0E0,0E0,1.5935318E1,2.3821516E1,1.4453735E1,9.912126E0,6.9922714E0,0E0,0E0,0E0,0E0,0E0,0E0,0E0,0E0,4.791069E0,0E0,0E0,0E0,0E0,1.2462289E1,1.4279832E1,0E0,3.2939987E0,7.102446E0,7.0460863E0,0E0,6.507927E0,9.352715E0,7.078842E0,7.7950363E0,1.1332439E0,1.1360443E1,9.662628E-1,1.2502651E0,5.842416E0,1.476894E1,5.958337E0,0E0,2.4893942E0,0E0,0E0,0E0,0E0,0E0,0E0,0E0,0E0,0E0,0E0,0E0,0E0,0E0,0E0,0E0,0E0,0E0,0E0,0E0,0E0,0E0,0E0,0E0,0E0,0E0,0E0,0E0,0E0,0E0,0E0,0E0,0E0,0E0,0E0],"parents":[2147483647,0,0,1,1,2,2,3,3,4,4,5,5,7,7,8,8,9,9,10,10,11,11,12,12,13,13,15,15,17,17,18,18,19,19,20,20,23,23,25,25,26,26,29,29,30,30,31,31,32,32,33,33,34,34,35,35,37,37,40,40,41,41,42,42,43,43,44,44,46,46,47,47,52,52,53,53,55,55,56,56,58,58,59,59,60,60,61,61,62,62,65,65,66,66,67,67,68,68,69,69,78,78,83,83,84,84,86,86,87,87,88,88,90,90,91,91,92,92,93,93,94,94,95,95,96,96,97,97,98,98,99,99,100,100,102,102],"right_children":[2,4,6,8,10,12,-1,14,16,18,20,22,24,26,-1,28,-1,30,32,34,36,-1,-1,38,-1,40,42,-1,-1,44,46,48,50,52,54,56,-1,58,-1,-1,60,62,64,66,68,-1,70,72,-1,-1,-1,-1,74,76,-1,78,80,-1,82,84,86,88,90,-1,-1,92,94,96,98,100,-1,-1,-1,-1,-1,-1,-1,-1,102,-1,-1,-1,-1,104,106,-1,108,110,112,-1,114,116,118,120,122,124,126,128,130,132,134,-1,136,-1,-1,-1,-1,-1,-1,-1,-1,-1,-1,-1,-1,-1,-1,-1,-1,-1,-1,-1,-1,-1,-1,-1,-1,-1,-1,-1,-1,-1,-1,-1,-1,-1,-1],"split_conditions":[1.5362775E0,-5.5744225E-1,1E0,1E0,1.9204237E-1,-5.433236E-1,-2.3223903E-2,1E0,-1.7827012E-1,1E0,3.225352E-1,-9.0275574E-1,1E0,-4.2937258E-1,-3.0345082E-2,-7.119299E-1,2.3302192E-2,1.0229089E0,-4.2937258E-1,-4.2937258E-1,1E0,6.585869E-2,5.658425E-2,-9.635753E-2,5.5204388E-2,-1.0562342E0,1E0,6.9412805E-2,4.1690543E-2,-4.2937258E-1,-5.0616246E-1,-3.5847324E-1,1.2224259E0,1E0,1E0,6.2627256E-1,-2.407553E-2,1.6374938E0,1.9579588E-2,3.8294967E-2,1E0,-7.457362E-1,7.2832346E-2,1E0,1E0,-1.5886404E-2,1E0,-4.3450105E-1,-2.0794362E-2,-3.1085344E-2,-1.5942102E-2,-2.2600275E-2,4.2925128E-1,8.287282E-1,-3.3173822E-2,-4.2937258E-1,5.4755485E-1,2.3149403E-2,-4.2937258E-1,-6.838647E-1,2.2127633E-1,-3.9566013E-1,-7.5255877E-1,-9.777939E-3,-2.4089709E-2,2.3918769E-1,-1.8176372E-1,1E0,-3.8577706E-1,-3.7238476E-1,-1.0290274E-2,-1.473676E-2,-3.7632522E-3,-2.5181584E-3,-1.6651746E-2,-2.325583E-2,-2.9591164E-2,7.94686E-3,2.9433125E-1,-2.2165565E-2,-2.9226567E-3,5.4067347E-2,3.746321E-2,-9.4557685E-1,4.6049365E-1,2.458274E-2,-7.8881323E-1,7.357464E-1,-1.7827012E-1,5.950117E-3,3.239348E-1,-3.0369878E-1,-6.2662494E-1,2.0600714E-1,-2.1674873E-2,1E0,-2.7195325E-1,7.2832346E-2,-1.2257757E-2,1.2663677E0,1E0,-0E0,4.2925128E-1,-8.430797E-3,7.466824E-3,-8.736503E-3,8.766552E-3,2.0080615E-2,4.7335303E-3,-8.496458E-3,8.670109E-3,-2.476864E-3,1.5059745E-2,-1.3585477E-2,-4.340914E-3,-7.7716764E-3,-1.5932543E-2,-9.548142E-3,4.0509537E-4,2.7761528E-2,4.3016123E-3,-0E0,-8.7168235E-3,-1.6154673E-2,-3.2963958E-2,-2.0011984E-2,-2.6482867E-2,-7.114756E-3,-1.6376307E-2,-0E0,-8.831743E-3,3.180423E-3,3.6342643E-2,3.1466521E-3,1.9692378E-2,-2.2150105E-2,-5.515147E-3],"split_indices":[7,9,11,14,9,9,0,11,3,17,7,9,15,3,0,9,0,7,3,3,17,0,0,9,0,9,17,0,0,3,9,9,4,14,17,9,0,7,0,0,16,9,3,14,15,0,16,9,0,0,0,0,9,9,0,3,7,0,3,9,7,4,7,0,0,1,9,16,9,9,0,0,0,0,0,0,0,0,9,0,0,0,0,9,7,0,9,1,3,0,3,9,7,7,9,11,9,3,9,7,15,0,9,0,0,0,0,0,0,0,0,0,0,0,0,0,0,0,0,0,0,0,0,0,0,0,0,0,0,0,0,0,0,0,0,0,0],"split_type":[0,0,0,0,0,0,0,0,0,0,0,0,0,0,0,0,0,0,0,0,0,0,0,0,0,0,0,0,0,0,0,0,0,0,0,0,0,0,0,0,0,0,0,0,0,0,0,0,0,0,0,0,0,0,0,0,0,0,0,0,0,0,0,0,0,0,0,0,0,0,0,0,0,0,0,0,0,0,0,0,0,0,0,0,0,0,0,0,0,0,0,0,0,0,0,0,0,0,0,0,0,0,0,0,0,0,0,0,0,0,0,0,0,0,0,0,0,0,0,0,0,0,0,0,0,0,0,0,0,0,0,0,0,0,0,0,0],"sum_hessian":[8.0420435E3,6.954416E3,1.0876273E3,1.5432448E3,5.4111714E3,1.0445406E3,4.3086697E1,1.4313993E3,1.1184537E2,3.2996628E3,2.1115085E3,8.311609E2,2.1337971E2,1.3401903E3,9.1209045E1,7.5285706E1,3.6559666E1,2.7722925E3,5.273704E2,1.9241177E3,1.8739078E2,3.985077E2,4.326532E2,1.7250815E2,4.087157E1,6.850043E2,6.55186E2,5.094188E1,2.4343824E1,2.5806543E3,1.9163823E2,1.6893036E2,3.584401E2,5.2969824E2,1.3944194E3,1.5668324E2,3.0707539E1,1.523546E2,2.0153557E1,3.4845802E1,6.501585E2,5.556039E2,9.9582146E1,8.745319E2,1.7061224E3,2.3957176E1,1.6768106E2,5.7743275E1,1.1118709E2,3.3481415E2,2.3625935E1,4.392211E2,9.047714E1,1.1478763E3,2.4654315E2,9.910776E1,5.7575474E1,2.333427E1,1.2902032E2,5.320797E2,1.180788E2,2.3139534E2,3.242085E2,4.4626427E1,5.4955715E1,7.6294745E2,1.11584435E2,1.3118774E3,3.9424493E2,1.3716618E2,3.0514875E1,3.6575726E1,2.1167545E1,2.6774187E1,6.3702957E1,6.663895E2,4.8148685E2,2.848565E1,7.0622116E1,3.6236435E1,2.133904E1,3.7364956E1,9.1655365E1,3.7071753E2,1.6136217E2,5.675526E1,6.1323536E1,1.3281398E2,9.858137E1,3.98023E1,2.8440622E2,5.267423E2,2.3620518E2,6.157041E1,5.0014027E1,9.651183E2,3.467592E2,9.8514114E1,2.957308E2,4.917245E1,8.799373E1,2.7824963E1,4.279715E1,4.2448315E1,3.2826923E2,1.057035E2,5.5658665E1,3.356155E1,2.7761986E1,1.1249748E2,2.0316492E1,2.0430817E1,7.815055E1,1.6121265E2,1.2319356E2,2.2871011E2,2.9803217E2,8.997741E1,1.4622777E2,4.0153896E1,2.1416513E1,2.0542318E1,2.9471708E1,9.272936E2,3.7824654E1,1.3306529E2,2.1369391E2,3.8776245E1,5.9737873E1,2.0993486E2,8.579596E1,2.090659E1,2.8265863E1,6.071006E1,2.7283669E1,2.0713144E1,2.2084005E1],"tree_param":{"num_deleted":"0","num_feature":"19","num_nodes":"137","size_leaf_vector":"1"}},{"base_weights":[-1.367438E-1,-4.4945768E-1,1.8611094E0,-7.999827E-1,1.2921064E0,1.9683254E0,-6.7346364E-1,-1.4726053E-1,-8.905315E-1,1.3953757E0,-2.4739686E-2,2.0678198E0,1.3592615E0,-6.3140844E-3,-2.7907902E-2,-3.2069233E-1,2.0942798E0,-9.2515004E-1,-1.1653048E-2,1.589419E0,4.8471197E-1,6.465708E-2,1.9402653E0,3.2882206E-2,5.00387E-2,-4.2586794E-1,8.9563155E-1,3.9796837E-2,7.26653E-2,-1.022866E0,-7.3441845E-1,6.807532E-1,-4.8824018E-1,1.7116346E0,7.807645E-1,7.1353394E-1,-1.3759855E-2,4.363839E-2,5.8171313E-2,3.0007573E-2,-5.313796E-1,6.1727865E-3,4.2994827E-2,-1.0407835E0,-7.1221626E-1,-5.489129E-1,-8.757628E-1,1.1906438E0,-1.6612475E-3,-6.257215E-1,-0E0,1.8766766E0,9.822237E-1,4.327835E-2,1.8343358E-1,1.0225685E0,3.669987E-2,-7.517421E-1,-3.3182243E-1,-1.0084771E0,-3.398288E-2,-2.3511907E-2,-1.2674327E-2,-6.520205E-1,4.5227465E-1,-7.6130587E-1,-9.929224E-1,2.166217E-2,4.4601884E-2,-4.430286E-1,-2.8196244E-2,1.1980519E0,2.0166728E0,1.4686763E0,3.109434E-1,-2.8332463E-3,1.1578191E-2,1.2657843E0,3.3494306E-4,-6.071017E-3,1.06854495E-2,-8.281042E-1,-5.33981E-1,-6.3344896E-1,-1.1039018E-1,-8.992961E-1,-3.038708E-2,-7.330831E-1,-2.4772315E-1,1.3337407E-1,2.7423246E-2,-8.3565325E-1,8.142238E-3,-2.9139679E-2,-1.5444833E-2,-1.767735E-2,-5.4865237E-3,5.5792585E-2,1.4786851E-1,6.0563374E-2,1.7207752E0,4.7461186E-2,2.2500543E-2,1.8478345E-2,-0E0,1.5488746E0,1.24431355E-2,-2.5839062E-2,-1.1835932E-2,-2.036605E-2,-8.87235E-3,-2.1732531E-2,-9.947561E-3,-0E0,-1.5970929E-2,-2.713569E-2,-2.7661684E-3,-1.8266572E-2,-2.8369965E-2,2.2516694E-2,-1.7838702E-2,2.5335973E-2,-1.9888464E-2,-3.120919E-2,-2.0574633E-2,-6.301795E-3,1.4431902E-2,9.877057E-3,5.5618167E-2,2.5226118E-2,5.698019E-2],"categories":[],"categories_nodes":[],"categories_segments":[],"categories_sizes":[],"default_left":[0,0,0,0,0,0,0,0,0,0,0,0,0,0,0,0,0,0,0,0,0,0,0,0,0,0,0,0,0,0,0,0,0,0,0,0,0,0,0,0,0,0,0,0,0,0,0,0,0,0,0,0,0,0,0,0,0,0,0,0,0,0,0,0,0,0,0,0,0,0,0,0,0,0,0,0,0,0,0,0,0,0,0,0,0,0,0,0,0,0,0,0,0,0,0,0,0,0,0,0,0,0,0,0,0,0,0,0,0,0,0,0,0,0,0,0,0,0,0,0,0,0,0,0,0,0,0,0,0,0,0],"id":10,"left_children":[1,3,5,7,9,11,13,15,17,19,-1,21,23,-1,-1,25,27,29,31,33,35,-1,37,-1,-1,39,41,-1,-1,43,45,47,49,51,53,55,-1,-1,-1,-1,57,-1,-1,59,61,63,65,67,-1,69,-1,71,73,-1,75,77,79,81,83,85,-1,-1,-1,87,89,91,93,-1,-1,95,-1,97,99,101,103,-1,-1,105,-1,-1,-1,107,109,111,113,115,-1,117,119,121,-1,123,-1,-1,-1,-1,-1,-1,125,-1,127,-1,-1,-1,-1,129,-1,-1,-1,-1,-1,-1,-1,-1,-1,-1,-1,-1,-1,-1,-1,-1,-1,-1,-1,-1,-1,-1,-1,-1,-1],"loss_changes":[5.004106E3,4.2307275E3,2.9897314E2,3.3964014E2,2.6199158E2,5.3084717E1,4.5685368E0,2.7476404E2,1.5316821E2,1.9223242E2,0E0,7.1904297E0,5.084442E0,0E0,0E0,8.473381E1,3.6654968E0,8.732324E1,6.509441E1,8.463208E1,4.5051666E1,0E0,1.0426514E1,0E0,0E0,9.5527275E1,1.9260948E1,0E0,0E0,1.4444336E1,4.1081116E1,3.1311161E1,8.13813E0,8.79458E1,5.247403E1,3.296489E1,0E0,0E0,0E0,0E0,2.345256E1,0E0,0E0,9.400635E0,3.4046707E0,7.6052155E1,9.088196E0,2.6600876E0,0E0,3.6901894E0,0E0,5.1991455E1,4.6812164E1,0E0,4.9049826E0,2.5987755E1,4.9062157E0,2.0933533E0,1.9553394E1,1.0428467E1,0E0,0E0,0E0,2.0335266E1,9.730313E0,3.9034454E1,2.3804016E0,0E0,0E0,1.9193468E0,0E0,8.935675E1,3.1152344E0,5.773819E0,6.461587E0,0E0,0E0,1.7329544E1,0E0,0E0,0E0,3.7536163E0,1.6637535E0,2.9027061E0,8.453124E0,3.1870483E1,0E0,1.0366974E1,4.615084E1,3.0306984E1,0E0,1.0010895E1,0E0,0E0,0E0,0E0,0E0,0E0,7.324839E0,0E0,4.1490845E1,0E0,0E0,0E0,0E0,1.20212555E1,0E0,0E0,0E0,0E0,0E0,0E0,0E0,0E0,0E0,0E0,0E0,0E0,0E0,0E0,0E0,0E0,0E0,0E0,0E0,0E0,0E0,0E0,0E0,0E0,0E0],"parents":[2147483647,0,0,1,1,2,2,3,3,4,4,5,5,6,6,7,7,8,8,9,9,11,11,12,12,15,15,16,16,17,17,18,18,19,19,20,20,22,22,25,25,26,26,29,29,30,30,31,31,32,32,33,33,34,34,35,35,40,40,43,43,44,44,45,45,46,46,47,47,49,49,51,51,52,52,54,54,55,55,56,56,57,57,58,58,59,59,63,63,64,64,65,65,66,66,69,69,71,71,72,72,73,73,74,74,77,77,81,81,82,82,83,83,84,84,85,85,87,87,88,88,89,89,91,91,98,98,100,100,105,105],"right_children":[2,4,6,8,10,12,14,16,18,20,-1,22,24,-1,-1,26,28,30,32,34,36,-1,38,-1,-1,40,42,-1,-1,44,46,48,50,52,54,56,-1,-1,-1,-1,58,-1,-1,60,62,64,66,68,-1,70,-1,72,74,-1,76,78,80,82,84,86,-1,-1,-1,88,90,92,94,-1,-1,96,-1,98,100,102,104,-1,-1,106,-1,-1,-1,108,110,112,114,116,-1,118,120,122,-1,124,-1,-1,-1,-1,-1,-1,126,-1,128,-1,-1,-1,-1,130,-1,-1,-1,-1,-1,-1,-1,-1,-1,-1,-1,-1,-1,-1,-1,-1,-1,-1,-1,-1,-1,-1,-1,-1,-1],"split_conditions":[1.6499939E0,1.2303442E0,1E0,-7.5539416E-1,1E0,-4.4794175E-1,-6.983438E-1,1E0,1.0888013E0,3.0869368E-1,-2.4739686E-2,-8.072581E-1,9.242164E-1,-6.3140844E-3,-2.7907902E-2,-7.813261E-1,3.9754492E-1,1.5066767E-1,1.1645103E0,1E0,1E0,6.465708E-2,-2.54211E-1,3.2882206E-2,5.00387E-2,-1.1443738E0,3.382944E-1,3.9796837E-2,7.26653E-2,1.1041833E0,-1.070948E-1,-5.244919E-2,5.5837274E-1,1E0,-4.960744E-1,1.1895039E0,-1.3759855E-2,4.363839E-2,5.8171313E-2,3.0007573E-2,9.124713E-3,6.1727865E-3,4.2994827E-2,1E0,-1.0608467E-1,1E0,4.1154468E-1,1.1283016E0,-1.6612475E-3,3.3506396E-1,-0E0,1.3685955E0,-3.6973384E-1,4.327835E-2,-1.880496E-1,1E0,1.9624805E0,-5.8824974E-1,-9.10986E-1,-2.368584E-1,-3.398288E-2,-2.3511907E-2,-1.2674327E-2,-2.6268664E-1,-2.6268664E-1,3.026304E-1,2.8145902E0,2.166217E-2,4.4601884E-2,-2.6268664E-1,-2.8196244E-2,1.3060532E0,-1.070948E-1,-1.525933E-1,-1.6426602E-1,-2.8332463E-3,1.1578191E-2,1E0,3.3494306E-4,-6.071017E-3,1.06854495E-2,1E0,-5.8667237E-1,7.826734E-1,1E0,-2.6268664E-1,-3.038708E-2,-3.6973384E-1,-2.368584E-1,-3.6973384E-1,2.7423246E-2,-8.1162825E-2,8.142238E-3,-2.9139679E-2,-1.5444833E-2,-1.767735E-2,-5.4865237E-3,5.5792585E-2,-9.659996E-2,6.0563374E-2,-8.1162825E-2,4.7461186E-2,2.2500543E-2,1.8478345E-2,-0E0,7.0286447E-1,1.24431355E-2,-2.5839062E-2,-1.1835932E-2,-2.036605E-2,-8.87235E-3,-2.1732531E-2,-9.947561E-3,-0E0,-1.5970929E-2,-2.713569E-2,-2.7661684E-3,-1.8266572E-2,-2.8369965E-2,2.2516694E-2,-1.7838702E-2,2.5335973E-2,-1.9888464E-2,-3.120919E-2,-2.0574633E-2,-6.301795E-3,1.4431902E-2,9.877057E-3,5.5618167E-2,2.5226118E-2,5.698019E-2],"split_indices":[6,5,11,2,11,9,2,14,5,9,0,2,5,0,0,2,5,5,5,17,17,0,5,0,0,2,5,0,0,6,2,9,6,16,2,2,0,0,0,0,5,0,0,17,5,14,2,5,0,9,0,5,2,0,9,16,8,8,2,2,0,0,0,2,2,2,8,0,0,2,0,5,2,8,9,0,0,14,0,0,0,16,5,5,17,2,0,2,2,2,0,2,0,0,0,0,0,0,6,0,2,0,0,0,0,2,0,0,0,0,0,0,0,0,0,0,0,0,0,0,0,0,0,0,0,0,0,0,0,0,0],"split_type":[0,0,0,0,0,0,0,0,0,0,0,0,0,0,0,0,0,0,0,0,0,0,0,0,0,0,0,0,0,0,0,0,0,0,0,0,0,0,0,0,0,0,0,0,0,0,0,0,0,0,0,0,0,0,0,0,0,0,0,0,0,0,0,0,0,0,0,0,0,0,0,0,0,0,0,0,0,0,0,0,0,0,0,0,0,0,0,0,0,0,0,0,0,0,0,0,0,0,0,0,0,0,0,0,0,0,0,0,0,0,0,0,0,0,0,0,0,0,0,0,0,0,0,0,0,0,0,0,0,0,0],"sum_hessian":[8.0061606E3,6.924624E3,1.0815369E3,5.765952E3,1.1586719E3,1.0385149E3,4.3021896E1,7.044673E2,5.061485E3,1.1069508E3,5.172109E1,8.8639685E2,1.5211809E2,2.0114521E1,2.2907375E1,6.561837E2,4.828357E1,4.868524E3,1.929611E2,9.101825E2,1.9676831E2,3.3535925E2,5.510376E2,1.0651656E2,4.5601532E1,6.061119E2,5.0071854E1,2.337363E1,2.4909939E1,3.2090276E3,1.6594962E3,7.744576E1,1.15515335E2,7.8733527E2,1.2284718E2,1.6036288E2,3.640542E1,1.0977232E2,4.4126526E2,3.844443E1,5.676675E2,2.5881779E1,2.4190073E1,3.0258174E3,1.8321017E2,7.256024E2,9.3389386E2,4.569782E1,3.1747946E1,9.01719E1,2.5343433E1,6.379151E2,1.4942018E2,5.2855675E1,6.999151E1,1.0829852E2,5.206436E1,2.6436655E2,3.033009E2,2.5004165E3,5.2540076E2,1.2431619E2,5.8893974E1,6.5946436E2,6.613804E1,4.855944E2,4.4829947E2,2.55271E1,2.0170721E1,6.508962E1,2.5082275E1,1.14182755E2,5.2373236E2,8.4165764E1,6.525442E1,2.946202E1,4.0529488E1,8.6057816E1,2.2240705E1,2.885196E1,2.3212402E1,1.8753699E2,7.682955E1,1.2470802E2,1.7859288E2,8.4034424E2,1.6600724E3,5.4575916E2,1.1370518E2,4.3574535E1,2.2563501E1,4.5465332E2,3.0941069E1,4.198034E2,2.8496048E1,3.4127056E1,3.096257E1,6.483222E1,4.935053E1,3.784034E2,1.4532895E2,6.2081955E1,2.2083803E1,2.8778484E1,3.6475933E1,6.1794323E1,2.4263494E1,1.545552E2,3.2981785E1,3.75809E1,3.9248657E1,8.1519455E1,4.3188564E1,1.467818E2,3.181108E1,7.9058527E2,4.9758965E1,4.0798123E2,1.3777795E2,2.8919008E1,8.478617E1,2.3346066E1,2.0228472E1,1.33971E2,3.206823E2,2.343995E1,2.5910578E1,2.1688745E1,1.23640205E2,2.8348051E1,3.3446274E1],"tree_param":{"num_deleted":"0","num_feature":"19","num_nodes":"131","size_leaf_vector":"1"}},{"base_weights":[-1.3957201E-1,-4.4907907E-1,1.7435821E0,-6.308598E-1,3.8444903E-1,-2.987791E-1,2.3134875E0,8.439034E-2,-7.3088187E-1,7.571892E-1,-1.1993821E-1,-4.763375E-1,4.5381215E-1,4.4465918E-2,6.7116745E-2,-2.0773267E-2,3.4902297E-2,-9.028418E-1,-5.3513795E-1,8.499235E-1,-2.623195E-2,-3.1473032E-1,3.1772304E-1,-3.151327E-1,-3.0937176E-2,1.9329263E-2,3.981487E-3,3.8059987E-2,-1.1806677E-1,-8.440461E-1,-3.3323158E-2,-5.8259875E-1,-3.9309584E-2,1.1821308E0,4.917925E-1,-7.726676E-2,-5.752227E-1,-1.3361274E-2,4.5889983E-1,-1.8255126E-1,-2.3957917E-2,-7.264564E-1,2.3579553E-2,-9.101268E-1,-6.460667E-1,-4.5168114E-1,-7.337037E-1,-3.4928468E-1,4.550066E-1,4.361946E-2,9.362362E-1,2.5115436E-1,1.1110334E0,-2.1965357E-2,1.5933439E-1,-7.9229766E-1,-2.1691065E-1,6.176646E-1,-5.8576325E-3,6.5299594E-3,-2.818381E-1,-5.0984496E-1,